SVM-light Version V6.01
2 # kernel type
3 # kernel parameter -d 
3 # kernel parameter -g 
1 # kernel parameter -s 
1 # kernel parameter -r 
empty# kernel parameter -u 
75 # highest feature index 
10778 # number of training documents 
414 # number of support vectors plus 1 
0.95733826 # threshold b, each following line is a SV (starting with alpha*y)
-0.16157977554936442388111572654452 1:0.050359711 2:0.083932854 3:0.01438849 4:0.043165468 5:0.064748198 6:0.011990407 7:0.026378896 8:0.050359711 9:0.052757792 10:0.01438849 11:0.079136692 12:0.10071942 13:0.023980815 14:0.1031175 15:0.050359711 16:0.01438849 17:0.0095923264 18:0.083932854 19:0.023980815 20:0.050000001 21:0.050000001 22:0 23:0.050000001 24:0.050000001 25:0 26:0.025 27:0.025 28:0.050000001 29:0 30:0.15000001 31:0.15000001 32:0.050000001 33:0.175 34:0 35:0.1 36:0.025 37:0.1 38:0.050000001 39:0 40:0.050000001 41:0.050000001 42:0 43:0.050000001 44:0 45:0.15000001 46:0.15000001 47:0.050000001 48:0.1 49:0 50:0 51:0 52:0 53:0.1 54:0 55:0 56:0.050000001 57:0 58:0.1 59:0 60:0 61:0.1 62:0 63:0 64:0 65:0.050000001 66:0.1 67:0 68:0.25 69:0 70:0 71:0.15000001 72:0.15000001 73:0.091111109 74:0.021164021 75:2.84606 #SBK1_RAT
1.4596487955147412485246150026796 1:0.051107325 2:0.045996591 3:0.015332198 4:0.052810904 5:0.027257239 6:0.069846675 7:0.040885862 8:0.080068141 9:0.064735949 10:0.045996591 11:0.04770017 12:0.08688245 13:0.059625212 14:0.056218058 15:0.049403749 16:0.025553662 17:0.020442931 18:0.081771724 19:0.0051107327 20:0.1 21:0 22:0.025 23:0 24:0 25:0 26:0.075000003 27:0.2 28:0.025 29:0 30:0.075000003 31:0.1 32:0.125 33:0.025 34:0.025 35:0.050000001 36:0 37:0 38:0 39:0.050000001 40:0 41:0 42:0 43:0.050000001 44:0 45:0.050000001 46:0.15000001 47:0.15000001 48:0 49:0 50:0.050000001 51:0.30000001 52:0 53:0.050000001 54:0.050000001 55:0 56:0 57:0.050000001 58:0 59:0.050000001 60:0 61:0.050000001 62:0 63:0 64:0.050000001 65:0.1 66:0.2 67:0.1 68:0 69:0.25 70:0 71:0 72:0.050000001 73:0.34 74:0.45396826 75:2.74103 #SKU5_ARATH
-1.4596064216857382866976422519656 1:0.11173184 2:0.011173184 3:0.011173184 4:0.072625697 5:0.022346368 6:0.039106146 7:0.044692736 8:0.094972067 9:0.039106146 10:0.027932961 11:0.10614525 12:0.078212291 13:0.06703911 14:0.022346368 15:0.044692736 16:0.011173184 17:0 18:0.055865921 19:0.027932961 20:0.15000001 21:0 22:0 23:0.050000001 24:0.075000003 25:0.025 26:0.025 27:0.050000001 28:0.1 29:0.025 30:0.075000003 31:0.1 32:0.1 33:0.025 34:0.025 35:0.075000003 36:0.025 37:0.1 38:0 39:0 40:0.050000001 41:0 42:0.050000001 43:0.050000001 44:0.050000001 45:0.15000001 46:0.050000001 47:0.2 48:0.1 49:0 50:0 51:0 52:0 53:0.050000001 54:0.050000001 55:0 56:0 57:0 58:0 59:0.050000001 60:0.050000001 61:0.1 62:0 63:0 64:0.050000001 65:0 66:0.34999999 67:0.050000001 68:0 69:0.2 70:0 71:0 72:0.050000001 73:0.12888889 74:0.42539683 75:2.88833 #PLA1_PLAAC
1.8114969762865003044538525500684 1:0.05276382 2:0.0075376886 3:0.0075376886 4:0.05276382 5:0.032663316 6:0.090452261 7:0.027638191 8:0.11306532 9:0.10301507 10:0.010050251 11:0.092964821 12:0.05276382 13:0.05276382 14:0.032663316 15:0.050251257 16:0.012562814 17:0.0050251256 18:0.082914576 19:0.012562814 20:0.025 21:0 22:0 23:0.025 24:0 25:0.075000003 26:0.025 27:0.175 28:0.050000001 29:0.025 30:0.25 31:0.075000003 32:0.125 33:0.025 34:0.050000001 35:0.075000003 36:0 37:0 38:0 39:0 40:0 41:0 42:0.050000001 43:0.050000001 44:0.050000001 45:0.25 46:0.15000001 47:0.2 48:0 49:0.050000001 50:0.1 51:0 52:0 53:0.1 54:0.050000001 55:0 56:0 57:0 58:0 59:0 60:0.050000001 61:0 62:0 63:0.050000001 64:0.44999999 65:0.050000001 66:0.2 67:0 68:0.050000001 69:0.050000001 70:0 71:0 72:0 73:0.35222223 74:0.28042328 75:2.6417699 #ECM33_ASPFU
-1.1811356337326921472907770294114 1:0 2:0.017045455 3:0.022727273 4:0.039772727 5:0.022727273 6:0.028409092 7:0.039772727 8:0.090909094 9:0.0625 10:0.022727273 11:0.045454547 12:0.085227273 13:0.13636364 14:0.028409092 15:0.079545453 16:0.022727273 17:0.017045455 18:0.06818182 19:0.011363637 20:0 21:0.025 22:0.025 23:0.025 24:0.025 25:0 26:0.075000003 27:0.1 28:0.050000001 29:0 30:0.075000003 31:0.075000003 32:0.175 33:0.025 34:0.075000003 35:0.050000001 36:0 37:0 38:0.050000001 39:0 40:0 41:0.050000001 42:0 43:0.050000001 44:0 45:0.15000001 46:0.15000001 47:0.2 48:0.25 49:0 50:0 51:0 52:0 53:0.050000001 54:0 55:0 56:0.050000001 57:0.1 58:0.050000001 59:0 60:0 61:0.050000001 62:0 63:0 64:0 65:0.050000001 66:0.30000001 67:0.050000001 68:0.1 69:0.1 70:0 71:0.1 72:0 73:0.47777778 74:0.25714287 75:2.79882 #NU6C_SOYBN
-0.51471607125871787769000320622581 1:0.024734983 2:0.038869258 3:0.063604243 4:0.045936394 5:0.037102472 6:0.058303885 7:0.04770318 8:0.097173147 9:0.084805652 10:0.017667845 11:0.12720849 12:0.040636044 13:0.028268551 14:0.033568904 15:0.030035336 16:0.0053003533 17:0.0053003533 18:0.11307421 19:0.015901061 20:0 21:0 22:0.025 23:0 24:0 25:0.050000001 26:0.15000001 27:0.075000003 28:0.15000001 29:0 30:0.25 31:0.025 32:0.025 33:0 34:0 35:0.2 36:0.025 37:0 38:0 39:0 40:0 41:0 42:0.050000001 43:0 44:0 45:0.34999999 46:0.050000001 47:0 48:0 49:0 50:0 51:0 52:0 53:0.15000001 54:0 55:0.1 56:0 57:0 58:0 59:0.15000001 60:0 61:0.1 62:0.050000001 63:0 64:0.1 65:0.1 66:0.1 67:0.1 68:0 69:0 70:0.050000001 71:0.1 72:0 73:0.07 74:0.026455026 75:2.7333901 #MOB2_DROME
1.5399506491766683513588986897958 1:0.060784314 2:0.039215688 3:0.015686275 4:0.056862745 5:0.047058824 6:0.049019609 7:0.033333335 8:0.078431375 9:0.05882353 10:0.041176472 11:0.043137256 12:0.084313728 13:0.062745102 14:0.054901961 15:0.052941177 16:0.019607844 17:0.021568628 18:0.050980393 19:0.027450981 20:0 21:0 22:0 23:0 24:0.050000001 25:0.050000001 26:0 27:0.2 28:0.125 29:0.025 30:0.025 31:0.1 32:0.075000003 33:0.1 34:0.075000003 35:0.025 36:0 37:0 38:0 39:0 40:0 41:0 42:0.050000001 43:0 44:0 45:0.050000001 46:0.1 47:0.15000001 48:0.2 49:0 50:0.1 51:0.050000001 52:0 53:0 54:0.15000001 55:0.050000001 56:0.050000001 57:0 58:0 59:0 60:0 61:0.15000001 62:0 63:0 64:0 65:0.15000001 66:0.050000001 67:0.050000001 68:0 69:0.2 70:0 71:0.1 72:0 73:0.43333334 74:0.11216931 75:2.6390901 #HYALP_MACFA
6 1:0.038338657 2:0.044728436 3:0.022364218 4:0.054313101 5:0.047923323 6:0.05111821 7:0.041533545 8:0.083067089 9:0.070287541 10:0.063897766 11:0.063897766 12:0.047923323 13:0.028753994 14:0.041533545 15:0.057507988 16:0.015974442 17:0.028753994 18:0.11182109 19:0.031948883 20:0 21:0.050000001 22:0.025 23:0.050000001 24:0.075000003 25:0 26:0.050000001 27:0.15000001 28:0.050000001 29:0.075000003 30:0.075000003 31:0.050000001 32:0.050000001 33:0.025 34:0.075000003 35:0.125 36:0.025 37:0 38:0.1 39:0.050000001 40:0 41:0.1 42:0 43:0 44:0.1 45:0.1 46:0.1 47:0.1 48:0.050000001 49:0 50:0.050000001 51:0 52:0 53:0.050000001 54:0 55:0.050000001 56:0 57:0.050000001 58:0 59:0.050000001 60:0.050000001 61:0.1 62:0.15000001 63:0 64:0.050000001 65:0 66:0.2 67:0.050000001 68:0 69:0.1 70:0.050000001 71:0.050000001 72:0 73:0.017777778 74:0.05820106 75:2.9391699 #ITLN1_HUMAN
4.11077534897789043100146955112 1:0.06437768 2:0.021459227 3:0.012875536 4:0.051502146 5:0.06437768 6:0.042918455 7:0.038626611 8:0.11158799 9:0.051502146 10:0.030042918 11:0.051502146 12:0.072961375 13:0.042918455 14:0.051502146 15:0.038626611 16:0.021459227 17:0.021459227 18:0.042918455 19:0.030042918 20:0.075000003 21:0.025 22:0 23:0 24:0.025 25:0 26:0 27:0.125 28:0.075000003 29:0 30:0.025 31:0.15000001 32:0.125 33:0.1 34:0.050000001 35:0.050000001 36:0.025 37:0 38:0.050000001 39:0 40:0 41:0 42:0 43:0 44:0 45:0 46:0.2 47:0.2 48:0.050000001 49:0.1 50:0.050000001 51:0 52:0.15000001 53:0.050000001 54:0 55:0 56:0 57:0 58:0.1 59:0 60:0.050000001 61:0.050000001 62:0.050000001 63:0 64:0.050000001 65:0.1 66:0.30000001 67:0 68:0 69:0.050000001 70:0.050000001 71:0 72:0.050000001 73:0.32777777 74:0.2920635 75:2.8066299 #GP42_RAT
0.76216028749042341594588378939079 1:0.013114754 2:0.0065573771 3:0 4:0.029508196 5:0.016393442 6:0.036065575 7:0.0098360656 8:0.24262296 9:0.13442624 10:0.0065573771 11:0.15409836 12:0.026229508 13:0.013114754 14:0.016393442 15:0 16:0.016393442 17:0 18:0.20655738 19:0.026229508 20:0 21:0.025 22:0 23:0 24:0 25:0.050000001 26:0 27:0.15000001 28:0.075000003 29:0 30:0.25 31:0.1 32:0.1 33:0.050000001 34:0 35:0.15000001 36:0 37:0 38:0 39:0 40:0 41:0 42:0 43:0 44:0 45:0.30000001 46:0.15000001 47:0.2 48:0.1 49:0 50:0 51:0 52:0 53:0.2 54:0.050000001 55:0 56:0 57:0 58:0 59:0 60:0 61:0.25 62:0 63:0 64:0.30000001 65:0.050000001 66:0.2 67:0 68:0 69:0 70:0 71:0 72:0 73:0.50222224 74:0.28783068 75:2.4786201 #YA090_ASPFU
-6 1:0.030201342 2:0.030201342 3:0.0067114094 4:0.050335571 5:0.035234898 6:0.05704698 7:0.02852349 8:0.15100671 9:0.097315438 10:0.048657719 11:0.060402684 12:0.062080536 13:0.067114092 14:0.040268455 15:0.041946311 16:0.018456375 17:0.0083892616 18:0.063758388 19:0.0083892616 20:0.025 21:0.050000001 22:0.025 23:0.025 24:0 25:0.025 26:0 27:0.15000001 28:0.050000001 29:0.025 30:0.1 31:0.075000003 32:0.175 33:0.050000001 34:0.050000001 35:0.075000003 36:0 37:0 38:0.050000001 39:0.050000001 40:0 41:0 42:0 43:0 44:0 45:0.050000001 46:0.1 47:0.30000001 48:0.2 49:0 50:0.050000001 51:0 52:0 53:0 54:0 55:0 56:0 57:0 58:0.050000001 59:0 60:0.050000001 61:0.050000001 62:0.1 63:0.050000001 64:0.050000001 65:0 66:0.25 67:0.1 68:0 69:0.1 70:0.1 71:0 72:0.050000001 73:0.47777778 74:0.28359789 75:2.5086601 #YPS7_YEAST
-6 1:0.05078125 2:0.03125 3:0.03125 4:0.052734375 5:0.064453125 6:0.048828125 7:0.02734375 8:0.140625 9:0.041015625 10:0.02734375 11:0.046875 12:0.060546875 13:0.052734375 14:0.041015625 15:0.037109375 16:0.013671875 17:0.017578125 18:0.056640625 19:0.07421875 20:0.025 21:0 22:0 23:0 24:0.025 25:0.025 26:0.025 27:0.175 28:0.025 29:0.025 30:0.1 31:0.075000003 32:0.075000003 33:0.050000001 34:0.075000003 35:0.075000003 36:0.050000001 37:0 38:0 39:0 40:0 41:0 42:0 43:0 44:0 45:0.15000001 46:0.050000001 47:0.15000001 48:0.1 49:0 50:0.15000001 51:0.050000001 52:0.1 53:0.050000001 54:0 55:0.050000001 56:0 57:0 58:0.050000001 59:0 60:0 61:0.15000001 62:0 63:0.050000001 64:0.1 65:0.15000001 66:0.2 67:0.1 68:0 69:0.050000001 70:0 71:0 72:0.050000001 73:0.42555556 74:0.42010581 75:2.7230101 #MDE10_SCHPO
-6 1:0.0058479533 2:0.056140352 3:0.030409357 4:0.030409357 5:0.063157894 6:0.01637427 7:0.044444446 8:0.069005847 9:0.040935673 10:0.015204678 11:0.099415205 12:0.063157894 13:0.029239766 14:0.10760234 15:0.01988304 16:0.010526316 17:0.0374269 18:0.098245613 19:0.040935673 20:0.025 21:0 22:0.050000001 23:0 24:0.025 25:0.025 26:0.025 27:0.15000001 28:0.050000001 29:0.025 30:0.075000003 31:0.025 32:0.2 33:0.125 34:0.025 35:0.1 36:0.025 37:0 38:0 39:0.050000001 40:0 41:0 42:0 43:0.050000001 44:0.050000001 45:0.1 46:0.050000001 47:0.30000001 48:0.050000001 49:0.050000001 50:0.050000001 51:0 52:0 53:0.050000001 54:0 55:0.050000001 56:0.050000001 57:0 58:0 59:0 60:0 61:0.050000001 62:0 63:0 64:0.1 65:0.1 66:0.25 67:0.1 68:0.15000001 69:0 70:0 71:0.050000001 72:0 73:0.27555555 74:0.34814814 75:2.6415901 #POLS2_HUMAN
6 1:0.064748198 2:0.0071942448 3:0.035971224 4:0.10071942 5:0.035971224 6:0.050359711 7:0.079136692 8:0.050359711 9:0.093525179 10:0.028776979 11:0.057553958 12:0.057553958 13:0.043165468 14:0.028776979 15:0.057553958 16:0.050359711 17:0.028776979 18:0.050359711 19:0 20:0.075000003 21:0 22:0.050000001 23:0.15000001 24:0 25:0.025 26:0.125 27:0.025 28:0.1 29:0.025 30:0.1 31:0.050000001 32:0.025 33:0 34:0.025 35:0.025 36:0 37:0.1 38:0 39:0 40:0.1 41:0 42:0.050000001 43:0.2 44:0.050000001 45:0 46:0.050000001 47:0 48:0.1 49:0 50:0 51:0.1 52:0.050000001 53:0.050000001 54:0.1 55:0 56:0 57:0.1 58:0.050000001 59:0 60:0 61:0 62:0.1 63:0 64:0.1 65:0.1 66:0.25 67:0.050000001 68:0.050000001 69:0 70:0 71:0.050000001 72:0 73:-0.22333333 74:0.15767196 75:3.48383 #ACA_HUMAN
6 1:0.048 2:0.035999998 3:0.024 4:0.039999999 5:0.052000001 6:0.059999999 7:0.028000001 8:0.108 9:0.071999997 10:0.044 11:0.032000002 12:0.068000004 13:0.068000004 14:0.052000001 15:0.044 16:0.032000002 17:0.0080000004 18:0.044 19:0.044 20:0.050000001 21:0.1 22:0.050000001 23:0.050000001 24:0 25:0.075000003 26:0 27:0.050000001 28:0.075000003 29:0.050000001 30:0.050000001 31:0.050000001 32:0.1 33:0.075000003 34:0 35:0.025 36:0.050000001 37:0.1 38:0.1 39:0 40:0.1 41:0 42:0.15000001 43:0 44:0.050000001 45:0 46:0.050000001 47:0.1 48:0.050000001 49:0.050000001 50:0 51:0.050000001 52:0 53:0.050000001 54:0 55:0.050000001 56:0 57:0.050000001 58:0 59:0 60:0 61:0.1 62:0 63:0 64:0.15000001 65:0.2 66:0.2 67:0 68:0 69:0 70:0 71:0.15000001 72:0.050000001 73:-0.20444444 74:0.29417989 75:3.4628999 #LFA3_HUMAN
-0.13054804989080295851699986542371 1:0.11363637 2:0.045454547 3:0.011363637 4:0.03409091 5:0.090909094 6:0.022727273 7:0.011363637 8:0.090909094 9:0.045454547 10:0 11:0.11363637 12:0.06818182 13:0.06818182 14:0.056818184 15:0.056818184 16:0.022727273 17:0.011363637 18:0.03409091 19:0 20:0.2 21:0.050000001 22:0.025 23:0.050000001 24:0.1 25:0.025 26:0 27:0.1 28:0.050000001 29:0 30:0.15000001 31:0.025 32:0.025 33:0.025 34:0.075000003 35:0 36:0 37:0.2 38:0.050000001 39:0.050000001 40:0 41:0.1 42:0.050000001 43:0 44:0 45:0.1 46:0.050000001 47:0.050000001 48:0 49:0 50:0.15000001 51:0 52:0.050000001 53:0 54:0 55:0.050000001 56:0 57:0 58:0.050000001 59:0 60:0 61:0.1 62:0 63:0 64:0 65:0.25 66:0.30000001 67:0.050000001 68:0.050000001 69:0 70:0 71:0.050000001 72:0 73:-0.18888889 74:0.4116402 75:3.17782 #APOC1_CANFA
-0.83523028522225140068968585183029 1:0.047393367 2:0.037914693 3:0.014218009 4:0.047393367 5:0.028436018 6:0.061611373 7:0.014218009 8:0.066350713 9:0.033175357 10:0.066350713 11:0.033175357 12:0.08530806 13:0.09952607 14:0.037914693 15:0.061611373 16:0.04265403 17:0.023696683 18:0.061611373 19:0.014218009 20:0.050000001 21:0.025 22:0.025 23:0.1 24:0.025 25:0.050000001 26:0 27:0.025 28:0.050000001 29:0.1 30:0.025 31:0.025 32:0.025 33:0.075000003 34:0.050000001 35:0.075000003 36:0.025 37:0.050000001 38:0.050000001 39:0 40:0.1 41:0.050000001 42:0.050000001 43:0 44:0.1 45:0 46:0 47:0.050000001 48:0.1 49:0.1 50:0.050000001 51:0 52:0.050000001 53:0.050000001 54:0 55:0.050000001 56:0 57:0.1 58:0 59:0.050000001 60:0 61:0 62:0.1 63:0 64:0.050000001 65:0.1 66:0.25 67:0.1 68:0.050000001 69:0 70:0.050000001 71:0.050000001 72:0 73:-0.15111111 74:0.26772487 75:3.46383 #DER1_YEAST
-0.10768440573047810548956704224111 1:0.06231454 2:0.029673591 3:0.011869436 4:0.080118693 5:0.047477745 6:0.074183978 7:0.029673591 8:0.115727 9:0.071216621 10:0.044510387 11:0.053412464 12:0.038575668 13:0.047477745 14:0.032640949 15:0.068249255 16:0.017804155 17:0.0089020776 18:0.032640949 19:0.017804155 20:0 21:0.050000001 22:0.025 23:0 24:0 25:0.050000001 26:0.050000001 27:0.1 28:0.075000003 29:0.025 30:0 31:0.15000001 32:0.2 33:0.025 34:0.075000003 35:0.025 36:0.075000003 37:0 38:0 39:0 40:0 41:0 42:0 43:0 44:0.050000001 45:0 46:0.2 47:0.30000001 48:0 49:0.050000001 50:0.050000001 51:0.1 52:0 53:0.050000001 54:0.15000001 55:0.050000001 56:0 57:0.1 58:0 59:0.050000001 60:0 61:0.1 62:0.1 63:0 64:0.1 65:0 66:0.1 67:0.050000001 68:0.050000001 69:0.050000001 70:0.050000001 71:0 72:0 73:0.4788889 74:-0.16613756 75:2.85744 #GTT3_YEAST
0.23547548040936996938121694711299 1:0.051181104 2:0.011811024 3:0.015748031 4:0.039370079 5:0.031496063 6:0.039370079 7:0.039370079 8:0.12204725 9:0.062992126 10:0.019685039 11:0.10236221 12:0.090551183 13:0.043307088 14:0.10629921 15:0.051181104 16:0.015748031 17:0.0039370079 18:0.043307088 19:0.0039370079 20:0.075000003 21:0 22:0.025 23:0.025 24:0.025 25:0.025 26:0.025 27:0.22499999 28:0 29:0 30:0.1 31:0.075000003 32:0.15000001 33:0.075000003 34:0.025 35:0.075000003 36:0 37:0.050000001 38:0 39:0 40:0 41:0 42:0 43:0.050000001 44:0 45:0.1 46:0.1 47:0.30000001 48:0.1 49:0.050000001 50:0.050000001 51:0.050000001 52:0 53:0.050000001 54:0.050000001 55:0 56:0 57:0 58:0 59:0 60:0.050000001 61:0.1 62:0 63:0 64:0.2 65:0.15000001 66:0.1 67:0.15000001 68:0 69:0.050000001 70:0 71:0 72:0.050000001 73:0.41666666 74:0.42539683 75:2.5931301 #FLA7_ARATH
-0.30726395989669147423839490329556 1:0.056994818 2:0.031088082 3:0.015544041 4:0.041450776 5:0.062176164 6:0.020725388 7:0.025906736 8:0.088082902 9:0.046632126 10:0.025906736 11:0.041450776 12:0.07772021 13:0.056994818 14:0.098445594 15:0.020725388 16:0.005181347 17:0.015544041 18:0.088082902 19:0.041450776 20:0.075000003 21:0.075000003 22:0 23:0.025 24:0.025 25:0.025 26:0.025 27:0.15000001 28:0.025 29:0.025 30:0.050000001 31:0.025 32:0.15000001 33:0.050000001 34:0 35:0.125 36:0.025 37:0.15000001 38:0.1 39:0 40:0 41:0 42:0 43:0 44:0 45:0.1 46:0 47:0.15000001 48:0.1 49:0 50:0 51:0 52:0 53:0.2 54:0 55:0.050000001 56:0.050000001 57:0 58:0 59:0 60:0 61:0.050000001 62:0 63:0 64:0.1 65:0.050000001 66:0.44999999 67:0 68:0.1 69:0 70:0 71:0.1 72:0 73:0.02 74:0.35132274 75:2.9386899 #SAP3_MOUSE
-0.33342389321180232464314485696377 1:0.10644258 2:0.025210084 3:0.011204482 4:0.084033616 5:0.084033616 6:0.053221289 7:0.039215688 8:0.12044818 9:0.089635856 10:0.014005602 11:0.056022409 12:0.053221289 13:0.022408964 14:0.070028014 15:0.016806724 16:0.005602241 17:0 18:0.070028014 19:0 20:0.15000001 21:0.125 22:0.025 23:0.025 24:0.025 25:0.050000001 26:0.025 27:0.050000001 28:0.025 29:0.075000003 30:0.1 31:0.050000001 32:0.125 33:0.025 34:0.025 35:0.025 36:0 37:0.15000001 38:0.2 39:0 40:0.050000001 41:0 42:0.050000001 43:0.050000001 44:0.050000001 45:0.050000001 46:0.050000001 47:0.15000001 48:0 49:0.050000001 50:0 51:0 52:0 53:0 54:0 55:0.050000001 56:0 57:0 58:0 59:0 60:0.050000001 61:0.1 62:0 63:0 64:0.2 65:0.15000001 66:0.30000001 67:0 68:0.050000001 69:0.050000001 70:0 71:0 72:0 73:-0.31111112 74:0.4010582 75:3.1712699 #TGON3_RAT
-2.9568904825819757320459757465869 1:0.04255319 2:0.008510638 3:0 4:0.034042552 5:0.029787235 6:0.089361705 7:0.046808511 8:0.11489362 9:0.063829787 10:0.004255319 11:0.046808511 12:0.068085104 13:0.063829787 14:0.04255319 15:0.021276595 16:0.004255319 17:0.004255319 18:0.072340429 19:0.012765957 20:0 21:0 22:0 23:0 24:0 25:0.075000003 26:0.125 27:0.1 28:0.050000001 29:0.025 30:0.050000001 31:0.1 32:0.32499999 33:0.050000001 34:0.025 35:0.050000001 36:0.025 37:0 38:0 39:0 40:0 41:0 42:0.050000001 43:0.15000001 44:0 45:0.1 46:0.1 47:0.34999999 48:0 49:0.050000001 50:0 51:0 52:0 53:0.1 54:0 55:0 56:0 57:0 58:0.050000001 59:0.050000001 60:0.050000001 61:0.15000001 62:0 63:0 64:0 65:0.1 66:0.25 67:0.050000001 68:0 69:0.050000001 70:0 71:0.15000001 72:0.050000001 73:0.22888888 74:0.30476192 75:2.6642301 #PSP_MOUSE
-6 1:0.050480768 2:0.045673076 3:0.0072115385 4:0.050480768 5:0.040865384 6:0.064903848 7:0.040865384 8:0.10576923 9:0.07692308 10:0.021634616 11:0.05528846 12:0.069711536 13:0.072115384 14:0.028846154 15:0.057692308 16:0.016826924 17:0.0024038462 18:0.072115384 19:0.012019231 20:0.1 21:0.050000001 22:0.025 23:0.025 24:0 25:0.025 26:0.025 27:0.15000001 28:0.050000001 29:0 30:0.075000003 31:0.125 32:0.125 33:0.050000001 34:0.1 35:0.075000003 36:0 37:0 38:0.1 39:0.050000001 40:0 41:0 42:0 43:0 44:0 45:0.050000001 46:0.15000001 47:0.25 48:0 49:0.050000001 50:0.2 51:0 52:0 53:0.050000001 54:0 55:0.1 56:0 57:0 58:0 59:0 60:0 61:0.2 62:0.1 63:0.050000001 64:0.050000001 65:0.1 66:0.1 67:0.050000001 68:0 69:0.15000001 70:0.050000001 71:0 72:0 73:0.32111111 74:0.1968254 75:2.6531401 #MEU10_SCHPO
-0.52454028740486802195874815879506 1:0.020283977 2:0.054766733 3:0.01622718 4:0.046653144 5:0.060851928 6:0.05882353 7:0.068965517 8:0.07707911 9:0.075050712 10:0.046653144 11:0.048681542 12:0.062880322 13:0.056795131 14:0.052738335 15:0.030425964 16:0.024340771 17:0.004056795 18:0.062880322 19:0.081135906 20:0 21:0.075000003 22:0 23:0.025 24:0.050000001 25:0 26:0 27:0.175 28:0.1 29:0.025 30:0 31:0.1 32:0.125 33:0.050000001 34:0.075000003 35:0.075000003 36:0 37:0 38:0.1 39:0 40:0 41:0 42:0 43:0 44:0 45:0 46:0.1 47:0.1 48:0.1 49:0.050000001 50:0.15000001 51:0 52:0 53:0.1 54:0.050000001 55:0 56:0 57:0 58:0 59:0 60:0.1 61:0.050000001 62:0.2 63:0.050000001 64:0.050000001 65:0.050000001 66:0.30000001 67:0 68:0 69:0.050000001 70:0 71:0 72:0 73:0.19444445 74:0.17037037 75:2.7587299 #FBLN3_MOUSE
6 1:0.073221758 2:0.048117153 3:0.029288704 4:0.046025105 5:0.056485355 6:0.050209206 7:0.025104603 8:0.09205021 9:0.052301254 10:0.039748956 11:0.058577407 12:0.077405855 13:0.048117153 14:0.041841004 15:0.043933053 16:0.018828452 17:0.018828452 18:0.073221758 19:0.020920502 20:0.2 21:0.050000001 22:0.025 23:0.025 24:0.050000001 25:0.025 26:0.050000001 27:0.125 28:0.025 29:0.025 30:0 31:0.075000003 32:0.050000001 33:0.025 34:0.050000001 35:0.075000003 36:0.050000001 37:0.2 38:0.050000001 39:0.050000001 40:0.050000001 41:0 42:0.050000001 43:0 44:0 45:0 46:0.1 47:0.050000001 48:0.050000001 49:0.050000001 50:0.050000001 51:0 52:0 53:0.1 54:0.050000001 55:0 56:0 57:0 58:0.050000001 59:0 60:0.050000001 61:0.15000001 62:0.050000001 63:0 64:0.050000001 65:0.15000001 66:0.34999999 67:0 68:0 69:0 70:0.050000001 71:0 72:0 73:-0.14555556 74:0.28783068 75:3.22857 #LIPL_SHEEP
6 1:0.040485829 2:0.052631579 3:0.022267206 4:0.06477733 5:0.056680162 6:0.040485829 7:0.048582997 8:0.078947365 9:0.056680162 10:0.034412954 11:0.042510122 12:0.06477733 13:0.044534411 14:0.066801623 15:0.044534411 16:0.012145749 17:0.024291499 18:0.080971658 19:0.016194332 20:0.075000003 21:0.025 22:0.050000001 23:0.075000003 24:0 25:0.050000001 26:0.15000001 27:0 28:0.050000001 29:0.050000001 30:0.125 31:0.050000001 32:0.075000003 33:0.075000003 34:0.050000001 35:0 36:0 37:0.1 38:0.050000001 39:0 40:0.1 41:0 42:0.050000001 43:0.050000001 44:0.050000001 45:0.1 46:0.1 47:0.050000001 48:0.050000001 49:0.1 50:0.050000001 51:0 52:0.050000001 53:0 54:0 55:0 56:0 57:0 58:0 59:0 60:0 61:0 62:0.1 63:0.050000001 64:0.050000001 65:0 66:0.2 67:0.15000001 68:0.050000001 69:0.050000001 70:0 71:0.2 72:0.1 73:-0.11111111 74:0.32169312 75:3.24685 #BGBP1_DROME
6 1:0.069295101 2:0.04540024 3:0.02270012 4:0.044205494 5:0.089605734 6:0.048984468 7:0.041816011 8:0.077658303 9:0.060931899 10:0.028673835 11:0.053763442 12:0.069295101 13:0.080047786 14:0.050179213 15:0.026284348 16:0.017921148 17:0.010752688 18:0.071684591 19:0.016726404 20:0.15000001 21:0 22:0 23:0.075000003 24:0.2 25:0.075000003 26:0.025 27:0.050000001 28:0.050000001 29:0 30:0.050000001 31:0.050000001 32:0.075000003 33:0.050000001 34:0 35:0.025 36:0 37:0.15000001 38:0 39:0 40:0.15000001 41:0.1 42:0.050000001 43:0.050000001 44:0 45:0.050000001 46:0.050000001 47:0 48:0.25 49:0 50:0 51:0 52:0 53:0 54:0 55:0.050000001 56:0 57:0 58:0 59:0 60:0.050000001 61:0.15000001 62:0 63:0.050000001 64:0.050000001 65:0.050000001 66:0.40000001 67:0 68:0 69:0.050000001 70:0 71:0.1 72:0 73:-0.11111111 74:0.34285715 75:3.1378901 #NCAM2_MOUSE
-0.14053023713287440821240181776375 1:0.086206898 2:0.022167487 3:0.032019705 4:0.061576355 5:0.061576355 6:0.05172414 7:0.04187192 8:0.044334974 9:0.054187194 10:0.05172414 11:0.073891625 12:0.088669948 13:0.044334974 14:0.05172414 15:0.019704433 16:0.01231527 17:0.019704433 18:0.076354682 19:0.029556651 20:0.075000003 21:0 22:0 23:0.075000003 24:0.050000001 25:0.025 26:0.050000001 27:0.075000003 28:0.1 29:0.075000003 30:0.1 31:0.125 32:0.025 33:0 34:0.025 35:0.050000001 36:0.025 37:0.1 38:0 39:0 40:0.050000001 41:0.050000001 42:0.050000001 43:0.1 44:0.050000001 45:0.050000001 46:0.2 47:0 48:0.1 49:0 50:0 51:0 52:0.050000001 53:0.050000001 54:0 55:0 56:0 57:0.050000001 58:0 59:0 60:0.050000001 61:0.050000001 62:0 63:0 64:0.2 65:0.1 66:0.25 67:0.050000001 68:0 69:0.050000001 70:0.050000001 71:0.1 72:0 73:-0.027777778 74:0.35449734 75:3.2562399 #HPT_HUMAN
-0.027716631280949838300742271712807 1:0 2:0.6964286 3:0 4:0 5:0 6:0 7:0 8:0.053571429 9:0 10:0.017857144 11:0 12:0.017857144 13:0.017857144 14:0 15:0 16:0 17:0 18:0.17857143 19:0 20:0 21:0.77499998 22:0 23:0 24:0 25:0 26:0 27:0.025 28:0 29:0 30:0 31:0 32:0 33:0 34:0 35:0.2 36:0 37:0 38:0.80000001 39:0 40:0 41:0 42:0 43:0 44:0 45:0 46:0 47:0 48:0 49:0 50:0 51:0 52:0 53:0.2 54:0 55:0.60000002 56:0 57:0 58:0 59:0 60:0 61:0.1 62:0 63:0.050000001 64:0 65:0.050000001 66:0.050000001 67:0.050000001 68:0 69:0 70:0 71:0.1 72:0 73:-0.81777775 74:-0.48677248 75:3.3668699 #HSP1_OCTVU
-0.22886023135215532997577270180045 1:0.075000003 2:0.0125 3:0.0625 4:0.1 5:0.0625 6:0.025 7:0.037500001 8:0.037500001 9:0.025 10:0.050000001 11:0.050000001 12:0.037500001 13:0.1125 14:0 15:0.037500001 16:0.0125 17:0.0125 18:0.1375 19:0 20:0.050000001 21:0 22:0.1 23:0.15000001 24:0.025 25:0.050000001 26:0.075000003 27:0 28:0.025 29:0.1 30:0.050000001 31:0.050000001 32:0.050000001 33:0 34:0.025 35:0.175 36:0 37:0.1 38:0 39:0.050000001 40:0.15000001 41:0.050000001 42:0.050000001 43:0.050000001 44:0.2 45:0.050000001 46:0 47:0 48:0 49:0 50:0.050000001 51:0 52:0.050000001 53:0.15000001 54:0.1 55:0 56:0 57:0.050000001 58:0 59:0 60:0 61:0.050000001 62:0.050000001 63:0 64:0.050000001 65:0 66:0.30000001 67:0.25 68:0 69:0 70:0 71:0.1 72:0 73:-0.39333335 74:0.33756614 75:3.55036 #CLAPI_STYCL
6 1:0.027777778 2:0.022222223 3:0.016666668 4:0.044444446 5:0.033333335 6:0.072222225 7:0.061111111 8:0.088888891 9:0.061111111 10:0.016666668 11:0.1 12:0.03888889 13:0.061111111 14:0.03888889 15:0.027777778 16:0.050000001 17:0.022222223 18:0.1 19:0.03888889 20:0 21:0.050000001 22:0.050000001 23:0.025 24:0 25:0 26:0.025 27:0.15000001 28:0.075000003 29:0 30:0.050000001 31:0.025 32:0.075000003 33:0.025 34:0.050000001 35:0.15000001 36:0 37:0 38:0 39:0.1 40:0 41:0 42:0 43:0 44:0 45:0 46:0.050000001 47:0.15000001 48:0.15000001 49:0 50:0.1 51:0.1 52:0.050000001 53:0.1 54:0 55:0.050000001 56:0.050000001 57:0 58:0 59:0 60:0.050000001 61:0.15000001 62:0.050000001 63:0 64:0.15000001 65:0 66:0.2 67:0.1 68:0.050000001 69:0 70:0 71:0 72:0.050000001 73:0.30555555 74:0.23068783 75:2.82605 #E13L1_ARATH
6 1:0.048526864 2:0.041594453 3:0.020797227 4:0.051993068 5:0.05372617 6:0.058925476 7:0.043327555 8:0.065857887 9:0.050259966 10:0.038128249 11:0.064124785 12:0.08665511 13:0.067590989 14:0.045060657 15:0.045060657 16:0.010398613 17:0.0086655114 18:0.084922008 19:0.01559792 20:0.025 21:0.025 22:0.025 23:0 24:0.050000001 25:0.050000001 26:0 27:0.075000003 28:0.050000001 29:0.025 30:0.075000003 31:0.075000003 32:0.175 33:0.050000001 34:0.1 35:0.050000001 36:0.025 37:0.050000001 38:0 39:0.050000001 40:0 41:0 42:0.050000001 43:0 44:0 45:0.050000001 46:0 47:0.25 48:0.1 49:0 50:0.15000001 51:0 52:0.050000001 53:0.050000001 54:0 55:0.050000001 56:0 57:0 58:0 59:0 60:0 61:0.25 62:0.050000001 63:0 64:0.15000001 65:0.050000001 66:0.2 67:0 68:0.1 69:0 70:0 71:0.050000001 72:0.050000001 73:0.29444444 74:0.19259259 75:2.7142899 #5NTD_DISOM
5.3783069139912340617115660279524 1:0.021428572 2:0.030952381 3:0.011904762 4:0.026190476 5:0.03809524 6:0.050000001 7:0.026190476 8:0.13809524 9:0.080952384 10:0.014285714 11:0.076190479 12:0.097619049 13:0.052380953 14:0.080952384 15:0.045238096 16:0.0047619049 17:0.0047619049 18:0.054761905 19:0.0071428572 20:0.025 21:0.075000003 22:0 23:0 24:0.050000001 25:0 26:0.025 27:0.1 28:0 29:0.025 30:0.050000001 31:0.15000001 32:0.125 33:0.1 34:0.050000001 35:0.050000001 36:0.075000003 37:0 38:0.050000001 39:0 40:0 41:0 42:0 43:0 44:0.050000001 45:0.050000001 46:0.15000001 47:0.2 48:0.050000001 49:0.050000001 50:0.1 51:0 52:0.1 53:0.050000001 54:0 55:0 56:0.050000001 57:0 58:0 59:0.050000001 60:0 61:0.1 62:0.050000001 63:0.050000001 64:0.1 65:0.050000001 66:0.30000001 67:0.1 68:0.050000001 69:0.050000001 70:0 71:0 72:0 73:0.41777778 74:0.38306877 75:2.7804599 #FLA4_ARATH
-5.9998272024237104815824750403408 1:0.024390243 2:0.048780486 3:0.012195121 4:0.012195121 5:0.048780486 6:0.048780486 7:0.036585364 8:0.048780486 9:0.036585364 10:0.012195121 11:0.073170729 12:0.085365854 13:0.1097561 14:0.024390243 15:0.048780486 16:0.036585364 17:0.012195121 18:0.097560972 19:0.012195121 20:0.025 21:0.075000003 22:0 23:0 24:0.050000001 25:0.050000001 26:0.025 27:0.075000003 28:0.025 29:0 30:0.025 31:0.125 32:0.175 33:0.050000001 34:0.025 35:0.075000003 36:0 37:0 38:0.050000001 39:0 40:0 41:0 42:0.050000001 43:0 44:0 45:0.050000001 46:0.15000001 47:0.25 48:0.2 49:0.050000001 50:0.050000001 51:0.050000001 52:0 53:0.050000001 54:0 55:0 56:0 57:0 58:0 59:0.050000001 60:0.050000001 61:0.050000001 62:0.050000001 63:0.050000001 64:0.25 65:0.050000001 66:0.25 67:0.050000001 68:0 69:0.050000001 70:0 71:0 72:0.050000001 73:0.50333333 74:0.40529099 75:2.7234399 #IR3IP_HUMAN
-3.2082049135822270358175956062041 1:0.012195121 2:0.024390243 3:0 4:0 5:0.048780486 6:0.012195121 7:0.036585364 8:0.085365854 9:0.036585364 10:0.012195121 11:0.18292683 12:0.073170729 13:0.060975611 14:0.048780486 15:0.048780486 16:0.024390243 17:0 18:0.13414635 19:0 20:0.025 21:0.025 22:0 23:0 24:0.075000003 25:0.025 26:0 27:0.075000003 28:0.050000001 29:0.025 30:0.125 31:0.075000003 32:0.2 33:0.050000001 34:0.1 35:0.075000003 36:0 37:0 38:0 39:0 40:0 41:0 42:0.050000001 43:0 44:0.050000001 45:0.15000001 46:0.15000001 47:0.25 48:0.050000001 49:0.050000001 50:0.1 51:0 52:0 53:0.050000001 54:0 55:0 56:0 57:0 58:0 59:0 60:0 61:0.15000001 62:0 63:0 64:0.30000001 65:0.1 66:0.2 67:0.050000001 68:0.050000001 69:0 70:0 71:0.1 72:0 73:0.4311111 74:0.37248677 75:2.6777799 #ATPH_MESVI
-3.0959044398779465012694345205091 1:0.03125 2:0.035714287 3:0.022321429 4:0.017857144 5:0.029017856 6:0.033482142 7:0.026785715 8:0.089285716 9:0.049107142 10:0.033482142 11:0.091517858 12:0.078125 13:0.11607143 14:0.046875 15:0.046875 16:0.03125 17:0.0066964286 18:0.055803571 19:0.022321429 20:0.1 21:0 22:0.025 23:0 24:0.025 25:0.025 26:0 27:0 28:0.175 29:0.025 30:0.075000003 31:0.025 32:0.2 33:0.025 34:0.050000001 35:0.050000001 36:0.025 37:0.050000001 38:0 39:0 40:0 41:0 42:0.050000001 43:0 44:0 45:0.1 46:0 47:0.25 48:0.2 49:0 50:0.050000001 51:0.050000001 52:0.050000001 53:0.050000001 54:0 55:0.050000001 56:0.050000001 57:0 58:0 59:0 60:0 61:0.1 62:0.1 63:0 64:0.15000001 65:0.1 66:0.15000001 67:0.050000001 68:0 69:0 70:0 71:0.15000001 72:0.050000001 73:0.4188889 74:0.2825397 75:2.8263199 #AVT6_YEAST
6 1:0.066305816 2:0.033829499 3:0.012178619 4:0.041948579 5:0.083897159 6:0.027063599 7:0.037889041 8:0.097428955 9:0.0744249 10:0.025710419 11:0.047361299 12:0.089309879 13:0.064952642 14:0.05548038 15:0.028416779 16:0.023004059 17:0.0094722603 18:0.0608931 19:0.027063599 20:0.1 21:0.025 22:0 23:0 24:0.025 25:0.025 26:0.025 27:0.125 28:0 29:0.075000003 30:0.15000001 31:0.1 32:0.1 33:0.025 34:0.025 35:0.050000001 36:0.025 37:0.2 38:0.050000001 39:0 40:0 41:0.050000001 42:0.050000001 43:0.050000001 44:0.050000001 45:0.15000001 46:0.1 47:0.050000001 48:0 49:0 50:0 51:0.050000001 52:0 53:0.050000001 54:0.050000001 55:0 56:0 57:0 58:0 59:0 60:0 61:0.050000001 62:0.050000001 63:0 64:0.15000001 65:0.2 66:0.15000001 67:0.050000001 68:0.050000001 69:0.050000001 70:0.050000001 71:0.050000001 72:0 73:-0.16888888 74:0.42962962 75:3.1303799 #VCAM1_MOUSE
6 1:0.048109967 2:0.054982819 3:0.013745705 4:0.04467354 5:0.071019471 6:0.049255442 7:0.04238259 8:0.063001148 9:0.0790378 10:0.036655214 11:0.064146623 12:0.071019471 13:0.066437572 14:0.077892326 15:0.021764033 16:0.018327607 17:0.01489118 18:0.066437572 19:0.019473081 20:0.075000003 21:0.075000003 22:0.025 23:0.050000001 24:0.1 25:0.050000001 26:0.025 27:0.125 28:0.075000003 29:0 30:0.025 31:0.050000001 32:0.025 33:0.050000001 34:0.050000001 35:0.1 36:0 37:0.050000001 38:0.1 39:0.050000001 40:0.050000001 41:0.050000001 42:0.050000001 43:0 44:0 45:0.050000001 46:0.1 47:0 48:0.1 49:0 50:0.1 51:0 52:0 53:0.15000001 54:0 55:0 56:0 57:0 58:0.050000001 59:0.050000001 60:0 61:0.1 62:0 63:0 64:0.050000001 65:0.1 66:0.25 67:0 68:0.1 69:0.050000001 70:0 71:0.1 72:0.1 73:-0.059999999 74:0.26984128 75:3.0835199 #FAS2_DROME
-0.30264117428017522914984738235944 1:0.039855074 2:0.032608695 3:0.0036231885 4:0.028985508 5:0.018115941 6:0.047101449 7:0.050724637 8:0.11956522 9:0.15217391 10:0.054347824 11:0.072463766 12:0.068840578 13:0.047101449 14:0.061594203 15:0.043478262 16:0.025362318 17:0.014492754 18:0.061594203 19:0.010869565 20:0.1 21:0.075000003 22:0 23:0.025 24:0 25:0.075000003 26:0 27:0.175 28:0.050000001 29:0.050000001 30:0.075000003 31:0.050000001 32:0.050000001 33:0.075000003 34:0 35:0.075000003 36:0 37:0.2 38:0.15000001 39:0 40:0 41:0 42:0.050000001 43:0 44:0.050000001 45:0.050000001 46:0.050000001 47:0.1 48:0.050000001 49:0.050000001 50:0 51:0.050000001 52:0.050000001 53:0 54:0 55:0.1 56:0 57:0 58:0 59:0.050000001 60:0.050000001 61:0.1 62:0 63:0 64:0.050000001 65:0.15000001 66:0.2 67:0.1 68:0 69:0.1 70:0 71:0 72:0.050000001 73:-0.20888889 74:0.32380953 75:3.0706301 #KRE9_YEAST
-1.9950425689083239877419373442535 1:0.069105692 2:0.028455285 3:0.024390243 4:0.097560972 5:0.08130081 6:0.056910571 7:0.024390243 8:0.10569106 9:0.069105692 10:0.032520324 11:0.044715445 12:0.048780486 13:0.069105692 14:0.069105692 15:0.028455285 16:0.016260162 17:0.012195121 18:0.044715445 19:0.008130081 20:0.125 21:0.050000001 22:0.025 23:0.075000003 24:0 25:0.050000001 26:0.025 27:0.075000003 28:0.075000003 29:0.025 30:0.050000001 31:0.075000003 32:0.050000001 33:0.075000003 34:0.025 35:0.050000001 36:0 37:0.15000001 38:0.050000001 39:0 40:0.1 41:0 42:0.1 43:0 44:0 45:0.050000001 46:0.050000001 47:0.1 48:0.1 49:0.050000001 50:0 51:0 52:0 53:0.1 54:0 55:0 56:0 57:0 58:0 59:0.050000001 60:0 61:0.15000001 62:0.050000001 63:0.1 64:0 65:0.15000001 66:0.25 67:0 68:0 69:0.050000001 70:0 71:0.1 72:0 73:-0.13555555 74:0.26455027 75:3.2332201 #NO25_MEDSA
-0.4006787895924621145660182719439 1:0.07333333 2:0.059999999 3:0.039999999 4:0.013333334 5:0.02 6:0.059999999 7:0.033333335 8:0.10666667 9:0.02 10:0.026666667 11:0.10666667 12:0.06666667 13:0.033333335 14:0.046666667 15:0.039999999 16:0.02 17:0.026666667 18:0.059999999 19:0.033333335 20:0.125 21:0.025 22:0.025 23:0 24:0 25:0.1 26:0 27:0.32499999 28:0 29:0 30:0.050000001 31:0.050000001 32:0.125 33:0.050000001 34:0.025 35:0.050000001 36:0 37:0.050000001 38:0.050000001 39:0 40:0 41:0 42:0.15000001 43:0 44:0 45:0.050000001 46:0.050000001 47:0.15000001 48:0.1 49:0.050000001 50:0 51:0 52:0 53:0.050000001 54:0 55:0 56:0 57:0 58:0 59:0.050000001 60:0 61:0 62:0 63:0 64:0.25 65:0.050000001 66:0.25 67:0 68:0.050000001 69:0.050000001 70:0.1 71:0.1 72:0.050000001 73:0.007777778 74:0.37989417 75:2.7383399 #CCL25_HUMAN
4.6754600959395418158237589523196 1:0.074550129 2:0.020565553 3:0.028277636 4:0.041131105 5:0.077120826 6:0.053984575 7:0.059125964 8:0.056555271 9:0.051413883 10:0.035989717 11:0.069408737 12:0.051413883 13:0.06169666 14:0.056555271 15:0.056555271 16:0.025706941 17:0.0077120825 18:0.056555271 19:0.015424165 20:0.050000001 21:0 22:0.025 23:0 24:0 25:0.025 26:0.025 27:0.15000001 28:0 29:0 30:0.075000003 31:0.125 32:0.15000001 33:0.125 34:0.050000001 35:0.075000003 36:0 37:0 38:0 39:0 40:0 41:0 42:0.050000001 43:0.050000001 44:0 45:0.1 46:0.15000001 47:0.15000001 48:0.2 49:0 50:0.1 51:0.050000001 52:0 53:0.050000001 54:0.050000001 55:0 56:0.050000001 57:0.050000001 58:0.050000001 59:0 60:0 61:0 62:0.15000001 63:0 64:0.050000001 65:0.1 66:0.15000001 67:0.1 68:0 69:0.050000001 70:0 71:0.050000001 72:0 73:0.49000001 74:0.2857143 75:2.6447899 #NAR3_HUMAN
5.5555451248347935688798315823078 1:0.036144577 2:0.03786575 3:0.029259896 4:0.051635113 5:0.065404475 6:0.077452667 7:0.030981068 8:0.049913943 9:0.060240965 10:0.04130809 11:0.051635113 12:0.055077452 13:0.10499139 14:0.04475043 15:0.060240965 16:0.022375215 17:0.025817556 18:0.053356282 19:0.013769363 20:0.1 21:0.025 22:0 23:0 24:0.025 25:0.025 26:0.025 27:0.050000001 28:0.1 29:0 30:0.1 31:0.025 32:0.175 33:0.050000001 34:0.1 35:0 36:0 37:0.050000001 38:0 39:0 40:0 41:0 42:0 43:0 44:0 45:0.1 46:0.050000001 47:0.30000001 48:0.25 49:0.1 50:0.1 51:0.050000001 52:0 53:0 54:0 55:0.15000001 56:0 57:0 58:0 59:0.1 60:0 61:0 62:0 63:0.050000001 64:0.050000001 65:0 66:0.15000001 67:0.15000001 68:0 69:0.1 70:0.050000001 71:0.050000001 72:0.050000001 73:0.59444445 74:0.14708994 75:2.7089701 #AMY2_SCHPO
-0.05309694089091386570711250669774 1:0.090909094 2:0.090909094 3:0.0075757578 4:0.037878789 5:0.030303031 6:0.045454547 7:0.015151516 8:0.12878788 9:0.037878789 10:0 11:0.090909094 12:0.075757578 13:0.015151516 14:0.075757578 15:0.037878789 16:0.015151516 17:0 18:0.0075757578 19:0.083333336 20:0.025 21:0.1 22:0 23:0.025 24:0 25:0.050000001 26:0.025 27:0.125 28:0.025 29:0 30:0.125 31:0.050000001 32:0.050000001 33:0.1 34:0.050000001 35:0 36:0.25 37:0 38:0.15000001 39:0 40:0 41:0 42:0.050000001 43:0.050000001 44:0 45:0.050000001 46:0.050000001 47:0.1 48:0 49:0 50:0.1 51:0 52:0 53:0 54:0 55:0.050000001 56:0 57:0.050000001 58:0 59:0 60:0 61:0 62:0.15000001 63:0 64:0.1 65:0.1 66:0.30000001 67:0 68:0 69:0.15000001 70:0 71:0 72:0.050000001 73:0.088888891 74:0.35978836 75:3.0443399 #ASIP_HUMAN
-0.84567763328430112235167825929238 1:0.1 2:0.045161292 3:0.029032258 4:0.048387095 5:0.11935484 6:0.035483871 7:0.029032258 8:0.080645159 9:0.045161292 10:0.025806451 11:0.070967741 12:0.067741938 13:0.074193545 14:0.0096774194 15:0.025806451 16:0.058064517 17:0.0032258064 18:0.048387095 19:0.0032258064 20:0.075000003 21:0.050000001 22:0.025 23:0 24:0 25:0.025 26:0.025 27:0.15000001 28:0.050000001 29:0 30:0.025 31:0.075000003 32:0.125 33:0.025 34:0.025 35:0.025 36:0.025 37:0 38:0 39:0 40:0 41:0 42:0 43:0 44:0 45:0 46:0.15000001 47:0.2 48:0.30000001 49:0.050000001 50:0.050000001 51:0 52:0 53:0 54:0.15000001 55:0 56:0 57:0.1 58:0 59:0.050000001 60:0 61:0.1 62:0.050000001 63:0.050000001 64:0.1 65:0.050000001 66:0.1 67:0 68:0 69:0.050000001 70:0 71:0 72:0 73:0.57888889 74:-0.041269843 75:2.72386 #SY111_ARATH
-3.4585200790573238371905517851701 1:0.092369474 2:0.052208837 3:0.020080321 4:0.06827309 5:0.060240965 6:0.048192769 7:0.020080321 8:0.080321282 9:0.060240965 10:0.0080321282 11:0.056224901 12:0.072289154 13:0.032128513 14:0.084337346 15:0.048192769 16:0.048192769 17:0.0040160641 18:0.040160641 19:0.016064256 20:0.050000001 21:0.025 22:0 23:0.050000001 24:0 25:0.025 26:0 27:0.125 28:0.075000003 29:0 30:0.075000003 31:0.075000003 32:0.125 33:0.075000003 34:0.125 35:0.075000003 36:0 37:0.050000001 38:0 39:0 40:0 41:0 42:0 43:0 44:0 45:0.1 46:0.1 47:0.2 48:0.2 49:0 50:0.2 51:0 52:0 53:0.1 54:0.050000001 55:0 56:0.050000001 57:0.050000001 58:0.050000001 59:0 60:0.050000001 61:0.1 62:0 63:0 64:0.2 65:0.050000001 66:0.1 67:0.050000001 68:0.1 69:0 70:0 71:0.050000001 72:0 73:0.56555557 74:0.04021164 75:2.66359 #VAPA_HUMAN
-3.542950167588107657223872593022 1:0.024952015 2:0.015355086 3:0.011516315 4:0.042226486 5:0.028790787 6:0.04990403 7:0.047984645 8:0.13819578 9:0.071017273 10:0.071017273 11:0.071017273 12:0.057581574 13:0.076775432 14:0.040307101 15:0.065259114 16:0.02303263 17:0.0057581575 18:0.04990403 19:0.011516315 20:0 21:0 22:0 23:0 24:0 25:0.1 26:0.025 27:0.175 28:0 29:0 30:0.125 31:0.075000003 32:0.1 33:0.025 34:0.075000003 35:0.075000003 36:0 37:0 38:0 39:0 40:0 41:0 42:0 43:0 44:0 45:0.1 46:0.1 47:0.15000001 48:0.15000001 49:0.050000001 50:0.050000001 51:0.2 52:0 53:0.1 54:0.050000001 55:0.050000001 56:0 57:0 58:0 59:0 60:0.050000001 61:0.15000001 62:0 63:0.050000001 64:0 65:0.050000001 66:0.15000001 67:0.2 68:0 69:0.15000001 70:0.050000001 71:0 72:0 73:0.48111111 74:0.2825397 75:2.7846601 #YPS1_SCHPO
6 1:0.079439253 2:0.046728972 3:0.0093457941 4:0.049065422 5:0.10747664 6:0.018691588 7:0.065420561 8:0.039719626 9:0.049065422 10:0.018691588 11:0.12850468 12:0.093457945 13:0.07009346 14:0.018691588 15:0.01635514 16:0.021028038 17:0.0093457941 18:0.058411215 19:0.01635514 20:0.075000003 21:0.025 22:0.025 23:0.025 24:0.050000001 25:0.050000001 26:0.025 27:0.1 28:0.075000003 29:0 30:0.125 31:0.125 32:0.15000001 33:0.050000001 34:0 35:0.050000001 36:0 37:0.1 38:0 39:0 40:0.050000001 41:0 42:0.050000001 43:0.050000001 44:0 45:0.1 46:0.1 47:0.15000001 48:0.1 49:0.050000001 50:0 51:0 52:0 53:0.1 54:0 55:0 56:0.050000001 57:0 58:0.050000001 59:0.1 60:0 61:0.050000001 62:0.050000001 63:0 64:0.050000001 65:0.15000001 66:0.050000001 67:0 68:0.050000001 69:0 70:0 71:0.2 72:0.15000001 73:0.10555556 74:0.093121693 75:2.8981099 #FLOT2_RAT
6 1:0.060301509 2:0.040201005 3:0.018425461 4:0.0519263 5:0.058626465 6:0.045226131 7:0.053601339 8:0.065326631 9:0.043551087 10:0.035175879 11:0.050251257 12:0.070351757 13:0.048576213 14:0.055276383 15:0.040201005 16:0.040201005 17:0.0083752098 18:0.065326631 19:0.041876048 20:0.025 21:0 22:0 23:0.025 24:0 25:0 26:0 27:0.075000003 28:0.050000001 29:0.025 30:0.1 31:0.050000001 32:0.1 33:0.2 34:0.050000001 35:0.025 36:0.175 37:0 38:0 39:0 40:0.050000001 41:0 42:0 43:0 44:0 45:0.1 46:0 47:0.1 48:0 49:0.30000001 50:0 51:0 52:0 53:0.050000001 54:0 55:0.050000001 56:0 57:0 58:0 59:0 60:0 61:0 62:0.1 63:0 64:0.15000001 65:0.1 66:0.25 67:0 68:0 69:0 70:0 71:0.15000001 72:0.1 73:0.12555556 74:0.40529099 75:3.1517999 #GPC3_RAT
-1.8500342370039974948525696163415 1:0.064748198 2:0.053237408 3:0.021582734 4:0.050359711 5:0.082014389 6:0.037410073 7:0.028776979 8:0.0705036 9:0.066187054 10:0.05179856 11:0.044604316 12:0.054676261 13:0.069064751 14:0.047482014 15:0.030215828 16:0.024460431 17:0.017266188 18:0.058992807 19:0.023021583 20:0.025 21:0.075000003 22:0.025 23:0.025 24:0.075000003 25:0.1 26:0.050000001 27:0.125 28:0.075000003 29:0 30:0.050000001 31:0.025 32:0.075000003 33:0.125 34:0 35:0.025 36:0 37:0 38:0.050000001 39:0 40:0 41:0.050000001 42:0.050000001 43:0 44:0 45:0.050000001 46:0.050000001 47:0.15000001 48:0.15000001 49:0.1 50:0 51:0 52:0.050000001 53:0 54:0.1 55:0 56:0.050000001 57:0 58:0 59:0 60:0.050000001 61:0.050000001 62:0.1 63:0.050000001 64:0.1 65:0 66:0.2 67:0.1 68:0.1 69:0.050000001 70:0 71:0 72:0 73:0.11888889 74:0.16402116 75:2.8568699 #IRPL1_MOUSE
-0.58466501952832861110920248393086 1:0.037037037 2:0.031746034 3:0.015873017 4:0.031746034 5:0.026455026 6:0.063492067 7:0.021164021 8:0.12698413 9:0.16931216 10:0.01058201 11:0.05820106 12:0.1058201 13:0.031746034 14:0.074074075 15:0.026455026 16:0.0052910051 17:0.01058201 18:0.031746034 19:0.05820106 20:0.075000003 21:0.075000003 22:0.025 23:0.050000001 24:0.025 25:0.025 26:0.025 27:0.075000003 28:0.1 29:0.025 30:0.050000001 31:0.075000003 32:0.075000003 33:0.075000003 34:0.050000001 35:0.050000001 36:0.025 37:0.1 38:0.1 39:0.050000001 40:0.050000001 41:0.050000001 42:0.050000001 43:0 44:0.050000001 45:0 46:0.1 47:0.15000001 48:0.15000001 49:0.050000001 50:0 51:0 52:0 53:0 54:0 55:0.1 56:0 57:0 58:0 59:0 60:0 61:0.15000001 62:0.050000001 63:0 64:0.1 65:0.1 66:0.25 67:0 68:0 69:0 70:0.050000001 71:0.050000001 72:0.1 73:0.018888889 74:0.2994709 75:3.1440599 #MUC24_HUMAN
-0.48034670758314901295449317331077 1:0.086538464 2:0.03846154 3:0.048076924 4:0.086538464 5:0.057692308 6:0 7:0.028846154 8:0.067307696 9:0.07692308 10:0.01923077 11:0.048076924 12:0.086538464 13:0.10576923 14:0.03846154 15:0.01923077 16:0.028846154 17:0.009615385 18:0.07692308 19:0.01923077 20:0.125 21:0.075000003 22:0.075000003 23:0.1 24:0.050000001 25:0 26:0.075000003 27:0.025 28:0.1 29:0.050000001 30:0.025 31:0.125 32:0.025 33:0 34:0 35:0.075000003 36:0 37:0.2 38:0 39:0.050000001 40:0.15000001 41:0 42:0 43:0.15000001 44:0 45:0.050000001 46:0.1 47:0.050000001 48:0.1 49:0 50:0 51:0 52:0 53:0 54:0.050000001 55:0 56:0 57:0.1 58:0 59:0 60:0 61:0.050000001 62:0.050000001 63:0 64:0.1 65:0.1 66:0.050000001 67:0.1 68:0.1 69:0.050000001 70:0 71:0.050000001 72:0.1 73:-0.21111111 74:0.2074074 75:3.26775 #ECM15_YEAST
2.9717028801675544613658530579414 1:0.090909094 2:0.027667984 3:0.031620555 4:0.043478262 5:0.043478262 6:0.051383398 7:0.039525691 8:0.098814227 9:0.086956523 10:0.027667984 11:0.051383398 12:0.035573121 13:0.055335969 14:0.055335969 15:0.055335969 16:0.031620555 17:0.015810277 18:0.043478262 19:0.019762846 20:0.050000001 21:0 22:0.025 23:0 24:0 25:0 26:0.025 27:0.175 28:0.1 29:0 30:0.075000003 31:0.025 32:0.125 33:0.1 34:0.125 35:0.050000001 36:0 37:0 38:0 39:0 40:0 41:0 42:0 43:0 44:0 45:0.15000001 46:0.050000001 47:0.15000001 48:0.15000001 49:0 50:0.25 51:0.050000001 52:0 53:0.1 54:0.15000001 55:0.050000001 56:0.1 57:0 58:0 59:0 60:0.050000001 61:0 62:0.050000001 63:0 64:0.15000001 65:0.050000001 66:0.15000001 67:0.1 68:0 69:0.050000001 70:0 71:0 72:0 73:0.53333336 74:0.14391534 75:2.6087699 #RAE1B_MOUSE
5.4311845949395731736331072170287 1:0.05232558 2:0.058139537 3:0.029069768 4:0.029069768 5:0.069767445 6:0.05232558 7:0.075581394 8:0.069767445 9:0.05232558 10:0.017441861 11:0.069767445 12:0.10465116 13:0.040697675 14:0.017441861 15:0.023255814 16:0.023255814 17:0.023255814 18:0.029069768 19:0.023255814 20:0.025 21:0.025 22:0.025 23:0 24:0.075000003 25:0.050000001 26:0.075000003 27:0.125 28:0.075000003 29:0 30:0.025 31:0.2 32:0.175 33:0 34:0.050000001 35:0.050000001 36:0 37:0 38:0 39:0.050000001 40:0 41:0 42:0 43:0 44:0 45:0.050000001 46:0.30000001 47:0.25 48:0 49:0 50:0.1 51:0 52:0 53:0.1 54:0.050000001 55:0.050000001 56:0.050000001 57:0.050000001 58:0.1 59:0 60:0 61:0.050000001 62:0 63:0.1 64:0.1 65:0.050000001 66:0.050000001 67:0 68:0.15000001 69:0.050000001 70:0.050000001 71:0 72:0 73:0.50222224 74:-0.14179894 75:2.5425799 #BST2_RAT
5.9618246312290743560424743918702 1:0.022321429 2:0.0089285718 3:0.022321429 4:0.044642858 5:0.022321429 6:0.058035713 7:0.053571429 8:0.15178572 9:0.098214284 10:0.040178571 11:0.12946428 12:0.026785715 13:0.049107142 14:0.040178571 15:0.084821425 16:0.044642858 17:0.0044642859 18:0.017857144 19:0 20:0.025 21:0.025 22:0.025 23:0 24:0 25:0.050000001 26:0.050000001 27:0.22499999 28:0.050000001 29:0.025 30:0.175 31:0.025 32:0.1 33:0.025 34:0.075000003 35:0.050000001 36:0 37:0.050000001 38:0 39:0.050000001 40:0 41:0 42:0 43:0 44:0.050000001 45:0.25 46:0.050000001 47:0.15000001 48:0.050000001 49:0.050000001 50:0.15000001 51:0.050000001 52:0 53:0.050000001 54:0.050000001 55:0 56:0 57:0 58:0 59:0.050000001 60:0 61:0.15000001 62:0 63:0 64:0.050000001 65:0.050000001 66:0.2 67:0.2 68:0.050000001 69:0.15000001 70:0 71:0 72:0 73:0.31333333 74:0.39470899 75:2.7137301 #YL040_YEAST
-6 1:0.061475411 2:0.038934425 3:0.040983606 4:0.049180329 5:0.075819671 6:0.045081966 7:0.020491803 8:0.073770493 9:0.090163931 10:0.040983606 11:0.063524589 12:0.075819671 13:0.045081966 14:0.047131147 15:0.028688524 16:0.012295082 17:0.016393442 18:0.071721308 19:0.0061475411 20:0.025 21:0 22:0 23:0.050000001 24:0 25:0.025 26:0 27:0.125 28:0.075000003 29:0 30:0.15000001 31:0.050000001 32:0.2 33:0.025 34:0.075000003 35:0.125 36:0 37:0 38:0 39:0 40:0 41:0 42:0 43:0 44:0 45:0.1 46:0 47:0.34999999 48:0.1 49:0 50:0.1 51:0 52:0 53:0.050000001 54:0 55:0 56:0 57:0 58:0 59:0.050000001 60:0.050000001 61:0.15000001 62:0.050000001 63:0 64:0 65:0.050000001 66:0.34999999 67:0.15000001 68:0 69:0 70:0 71:0.050000001 72:0.050000001 73:0.44333333 74:0.42328042 75:2.4561601 #UZIP_DROME
-1.1102178125379211781620369947632 1:0.07692308 2:0.046904314 3:0.030018762 4:0.041275796 5:0.06754221 6:0.035647281 7:0.031894933 8:0.065666042 9:0.058161352 10:0.033771105 11:0.060037524 12:0.073170729 13:0.06754221 14:0.048780486 15:0.061913695 16:0.031894933 17:0.009380863 18:0.073170729 19:0.015009381 20:0.050000001 21:0.075000003 22:0 23:0 24:0.050000001 25:0.050000001 26:0 27:0.075000003 28:0.1 29:0.025 30:0.125 31:0.1 32:0.050000001 33:0.025 34:0.075000003 35:0.025 36:0.025 37:0 38:0 39:0 40:0 41:0 42:0 43:0 44:0.050000001 45:0.2 46:0.15000001 47:0.050000001 48:0.1 49:0 50:0.15000001 51:0.1 52:0 53:0.050000001 54:0.15000001 55:0.050000001 56:0 57:0 58:0 59:0 60:0 61:0.15000001 62:0.050000001 63:0 64:0.050000001 65:0.1 66:0.050000001 67:0.15000001 68:0 69:0 70:0 71:0.2 72:0 73:0.4911111 74:0.11640212 75:2.7457099 #FMO5_CAVPO
-2.0453526654588976008142253704136 1:0.065476194 2:0.017857144 3:0.017857144 4:0.035714287 5:0.035714287 6:0.029761905 7:0.023809524 8:0.10416666 9:0.10714286 10:0.0089285718 11:0.11011904 12:0.086309522 13:0.047619049 14:0.0625 15:0.035714287 16:0.020833334 17:0.0089285718 18:0.074404761 19:0.041666668 20:0.050000001 21:0 22:0.025 23:0 24:0.025 25:0 26:0 27:0.125 28:0.025 29:0 30:0.27500001 31:0.1 32:0.050000001 33:0 34:0.050000001 35:0.125 36:0.025 37:0 38:0 39:0.050000001 40:0 41:0 42:0 43:0 44:0 45:0.2 46:0.15000001 47:0.050000001 48:0.2 49:0 50:0.050000001 51:0.050000001 52:0 53:0.1 54:0 55:0 56:0.1 57:0 58:0 59:0 60:0 61:0.25 62:0.050000001 63:0 64:0 65:0.050000001 66:0.1 67:0.1 68:0.050000001 69:0.15000001 70:0 71:0.050000001 72:0 73:0.47999999 74:0.16931216 75:2.61304 #P30_TOXGO
-0.023547372877237741223277467383923 1:0.04109589 2:0.04109589 3:0.0091324197 4:0.050228309 5:0.073059358 6:0.02739726 7:0.022831051 8:0.12328767 9:0.08219178 10:0.02739726 11:0.063926943 12:0.086757988 13:0.08219178 14:0.018264839 15:0.05479452 16:0.018264839 17:0.0045662099 18:0.031963471 19:0.01369863 20:0.025 21:0.025 22:0.025 23:0.125 24:0.22499999 25:0.050000001 26:0.050000001 27:0.15000001 28:0.075000003 29:0 30:0.050000001 31:0.050000001 32:0.025 33:0 34:0 35:0.025 36:0 37:0.050000001 38:0 39:0.050000001 40:0.1 41:0.2 42:0.1 43:0.050000001 44:0 45:0.050000001 46:0.050000001 47:0 48:0.15000001 49:0 50:0 51:0 52:0 53:0.050000001 54:0.050000001 55:0.050000001 56:0.050000001 57:0 58:0 59:0 60:0.050000001 61:0.050000001 62:0.2 63:0.050000001 64:0 65:0.1 66:0.2 67:0 68:0 69:0.1 70:0 71:0.050000001 72:0 73:-0.24333334 74:0.15343915 75:3.1147599 #YN8Z_YEAST
-1.1858297683782978992894641123712 1:0.094076656 2:0.11149826 3:0.0034843206 4:0.05574913 5:0.083623692 6:0.062717773 7:0.062717773 8:0.066202089 9:0.034843206 10:0.0069686412 11:0.020905923 12:0.031358887 13:0.034843206 14:0.010452962 15:0.048780486 16:0.010452962 17:0.038327526 18:0.11498258 19:0.0034843206 20:0.15000001 21:0.050000001 22:0 23:0.025 24:0.125 25:0.1 26:0.075000003 27:0.075000003 28:0.1 29:0 30:0 31:0.075000003 32:0.050000001 33:0.050000001 34:0 35:0 36:0 37:0.25 38:0 39:0 40:0 41:0.050000001 42:0.050000001 43:0 44:0 45:0 46:0.15000001 47:0 48:0.15000001 49:0.050000001 50:0 51:0.050000001 52:0 53:0 54:0 55:0 56:0 57:0 58:0.050000001 59:0.050000001 60:0 61:0.050000001 62:0.1 63:0.050000001 64:0 65:0.1 66:0.25 67:0.15000001 68:0 69:0 70:0 71:0.1 72:0.050000001 73:-0.043333333 74:0.37883598 75:3.16787 #PRFA_POLPE
-0.59591194863391439007216376921861 1:0.067489713 2:0.054320987 3:0.029629629 4:0.041152265 5:0.070781894 6:0.041975308 7:0.042798355 8:0.10041152 9:0.055144034 10:0.023868313 11:0.069958851 12:0.05185185 13:0.040329218 14:0.059259258 15:0.030452674 16:0.01893004 17:0.01728395 18:0.059259258 19:0.021399178 20:0.075000003 21:0.050000001 22:0 23:0.025 24:0.075000003 25:0.050000001 26:0.025 27:0.125 28:0.025 29:0 30:0.175 31:0.050000001 32:0.050000001 33:0.1 34:0.050000001 35:0.050000001 36:0 37:0.15000001 38:0.050000001 39:0 40:0.050000001 41:0.1 42:0.050000001 43:0 44:0 45:0.1 46:0.050000001 47:0.050000001 48:0.1 49:0.050000001 50:0.050000001 51:0 52:0.050000001 53:0.050000001 54:0 55:0 56:0 57:0 58:0 59:0 60:0.050000001 61:0 62:0 63:0.050000001 64:0.15000001 65:0 66:0.40000001 67:0 68:0.050000001 69:0 70:0 71:0.15000001 72:0.050000001 73:-0.12555556 74:0.38412699 75:3.07585 #GP158_HUMAN
5.2227962157067926440845440083649 1:0.019841271 2:0.023809524 3:0.011904762 4:0.023809524 5:0.015873017 6:0.067460321 7:0.027777778 8:0.14285715 9:0.055555556 10:0.023809524 11:0.11507937 12:0.075396828 13:0.043650795 14:0.067460321 15:0.047619049 16:0.0079365084 17:0.015873017 18:0.11904762 19:0.011904762 20:0 21:0.025 22:0 23:0 24:0 25:0.1 26:0 27:0.075000003 28:0.1 29:0 30:0.075000003 31:0.075000003 32:0.125 33:0.050000001 34:0.075000003 35:0.22499999 36:0 37:0 38:0 39:0 40:0 41:0 42:0.15000001 43:0 44:0 45:0 46:0.15000001 47:0.2 48:0.15000001 49:0 50:0.15000001 51:0 52:0 53:0.15000001 54:0 55:0 56:0 57:0 58:0 59:0 60:0 61:0.30000001 62:0 63:0 64:0.15000001 65:0.1 66:0.2 67:0.1 68:0 69:0.050000001 70:0 71:0 72:0.050000001 73:0.41333333 74:0.41904762 75:2.62939 #AIR12_ARATH
-0.0021841200909700985398342876209199 1:0.051948052 2:0.55844158 3:0 4:0.012987013 5:0.012987013 6:0.012987013 7:0 8:0.1038961 9:0.012987013 10:0.064935066 11:0.025974026 12:0.025974026 13:0 14:0.012987013 15:0 16:0.025974026 17:0 18:0.025974026 19:0 20:0 21:0.72500002 22:0 23:0 24:0 25:0 26:0 27:0.125 28:0 29:0.125 30:0 31:0 32:0 33:0.025 34:0 35:0 36:0 37:0 38:0.75 39:0 40:0 41:0 42:0 43:0 44:0.15000001 45:0 46:0 47:0 48:0 49:0 50:0 51:0 52:0 53:0 54:0.2 55:0 56:0 57:0.050000001 58:0.050000001 59:0.050000001 60:0 61:0.050000001 62:0.050000001 63:0 64:0.1 65:0.1 66:0.2 67:0 68:0 69:0 70:0 71:0.050000001 72:0 73:-0.81111109 74:0.027513228 75:3.3970101 #PRT2_SEPOF
4.4489337223843445912052629864775 1:0.037617553 2:0.040752351 3:0.028213166 4:0.056426331 5:0.056426331 6:0.040752351 7:0.025078369 8:0.10031348 9:0.031347964 10:0.031347964 11:0.090909094 12:0.056426331 13:0.047021944 14:0.053291537 15:0.031347964 16:0.031347964 17:0.025078369 18:0.065830722 19:0.037617553 20:0 21:0.025 22:0.025 23:0.050000001 24:0.025 25:0.025 26:0.025 27:0.22499999 28:0 29:0 30:0.2 31:0.025 32:0.125 33:0.025 34:0 35:0.025 36:0.025 37:0 38:0 39:0 40:0.050000001 41:0 42:0 43:0.050000001 44:0 45:0.15000001 46:0.050000001 47:0.2 48:0.2 49:0 50:0 51:0 52:0 53:0.050000001 54:0 55:0.050000001 56:0 57:0 58:0 59:0 60:0.050000001 61:0.1 62:0 63:0 64:0.15000001 65:0.050000001 66:0.34999999 67:0 68:0 69:0 70:0.050000001 71:0.050000001 72:0.050000001 73:0.34888887 74:0.31746033 75:2.68542 #BST1_RAT
-2.181901100209849619915303264861 1:0.010695187 2:0.01604278 3:0.0053475937 4:0.01604278 5:0.026737968 6:0.03208556 7:0.01604278 8:0.07486631 9:0.05882353 10:0.0053475937 11:0.13903743 12:0.1657754 13:0.042780749 14:0.010695187 15:0.021390375 16:0.010695187 17:0 18:0.12299465 19:0.026737968 20:0 21:0 22:0 23:0.025 24:0 25:0.025 26:0 27:0.125 28:0.050000001 29:0 30:0.27500001 31:0.050000001 32:0.1 33:0.025 34:0.025 35:0.2 36:0.075000003 37:0 38:0 39:0 40:0 41:0 42:0.050000001 43:0 44:0 45:0.2 46:0.1 47:0.1 48:0.050000001 49:0.050000001 50:0.050000001 51:0 52:0 53:0.25 54:0.050000001 55:0 56:0 57:0 58:0.050000001 59:0 60:0 61:0 62:0.050000001 63:0.050000001 64:0.2 65:0.2 66:0.15000001 67:0 68:0 69:0.1 70:0 71:0 72:0.050000001 73:0.2711111 74:0.44550264 75:2.6338699 #HAPP_PHYPO
-4.1143406639269439750705714686774 1:0.051383398 2:0.039525691 3:0.0039525693 4:0.051383398 5:0.063241109 6:0.035573121 7:0.031620555 8:0.079051383 9:0.055335969 10:0.027667984 11:0.11857708 12:0.1027668 13:0.023715414 14:0.06719368 15:0.043478262 16:0.0079051387 17:0.011857707 18:0.063241109 19:0.023715414 20:0.075000003 21:0 22:0 23:0.025 24:0.125 25:0 26:0 27:0.175 28:0 29:0 30:0.125 31:0.15000001 32:0.1 33:0.050000001 34:0.050000001 35:0.050000001 36:0 37:0 38:0 39:0 40:0 41:0 42:0 43:0 44:0 45:0.25 46:0.2 47:0.1 48:0.1 49:0.1 50:0.1 51:0 52:0 53:0 54:0 55:0.050000001 56:0 57:0 58:0 59:0 60:0.1 61:0.2 62:0 63:0 64:0.1 65:0.050000001 66:0.30000001 67:0 68:0 69:0.1 70:0 71:0.050000001 72:0 73:0.47111112 74:0.28783068 75:2.56195 #TA4_EIMTE
-3.2746212561324745671242908429122 1:0.05882353 2:0.029411765 3:0.019607844 4:0.068627454 5:0.05882353 6:0.029411765 7:0.0098039219 8:0.068627454 9:0.05882353 10:0 11:0.068627454 12:0.068627454 13:0.05882353 14:0.029411765 15:0.019607844 16:0.029411765 17:0 18:0.10784314 19:0.068627454 20:0.025 21:0.025 22:0 23:0.050000001 24:0 25:0.025 26:0 27:0.1 28:0.075000003 29:0 30:0.050000001 31:0.075000003 32:0.125 33:0.050000001 34:0 35:0.2 36:0.125 37:0 38:0.050000001 39:0 40:0 41:0 42:0 43:0 44:0 45:0.1 46:0.1 47:0.2 48:0.1 49:0.050000001 50:0 51:0 52:0 53:0.30000001 54:0.1 55:0 56:0 57:0 58:0 59:0 60:0.050000001 61:0.1 62:0.1 63:0 64:0.1 65:0.050000001 66:0.34999999 67:0.050000001 68:0 69:0.050000001 70:0 71:0 72:0 73:0.32666665 74:0.35449734 75:2.79109 #TOT2A_HADIN
5.9959814566719611406142576015554 1:0.014270033 2:0.069154777 3:0.014270033 4:0.048298571 5:0.1053787 6:0.024149286 7:0.037321623 8:0.074643247 9:0.042810097 10:0.035126235 11:0.09330406 12:0.061470911 13:0.023051592 14:0.095499448 15:0.025246982 16:0.0087815588 17:0.016465422 18:0.092206366 19:0.028540066 20:0.025 21:0.15000001 22:0.025 23:0.025 24:0.075000003 25:0 26:0.025 27:0.050000001 28:0 29:0 30:0.075000003 31:0.025 32:0.125 33:0.22499999 34:0 35:0.1 36:0 37:0.050000001 38:0.1 39:0 40:0 41:0 42:0 43:0 44:0 45:0.050000001 46:0 47:0.2 48:0.050000001 49:0.25 50:0 51:0.050000001 52:0.050000001 53:0.1 54:0 55:0 56:0 57:0 58:0 59:0 60:0.1 61:0 62:0 63:0 64:0.34999999 65:0.050000001 66:0.30000001 67:0 68:0.1 69:0.050000001 70:0 71:0 72:0 73:-0.0088888891 74:0.4010582 75:2.9217 #PGCB_HUMAN
-0.30951861770963673414769345981767 1:0.010638298 2:0.05319149 3:0.031914894 4:0.05319149 5:0.047872342 6:0.021276595 7:0.047872342 8:0.05319149 9:0.047872342 10:0.031914894 11:0.079787232 12:0.069148935 13:0.08510638 14:0.069148935 15:0.063829787 16:0.015957447 17:0.026595745 18:0.079787232 19:0.026595745 20:0 21:0.050000001 22:0.025 23:0 24:0.050000001 25:0.025 26:0.050000001 27:0.075000003 28:0.075000003 29:0.025 30:0.025 31:0.050000001 32:0.1 33:0.125 34:0.050000001 35:0.050000001 36:0 37:0 38:0 39:0 40:0 41:0.050000001 42:0.050000001 43:0.050000001 44:0 45:0 46:0.1 47:0.1 48:0.050000001 49:0.2 50:0.1 51:0 52:0.1 53:0 54:0 55:0 56:0 57:0 58:0 59:0 60:0 61:0 62:0 63:0 64:0.2 65:0.15000001 66:0.15000001 67:0 68:0.1 69:0 70:0.1 71:0.1 72:0.15000001 73:0.050000001 74:0.38730159 75:3.0060401 #PAP21_HUMAN
-1.7600484633189945604669901513262 1:0.037486218 2:0.028665932 3:0.037486218 4:0.042998899 5:0.039691292 6:0.05071665 7:0.028665932 8:0.10363837 9:0.046306506 10:0.019845646 11:0.069459759 12:0.05292172 13:0.056229327 14:0.051819183 15:0.051819183 16:0.015435502 17:0.0099228229 18:0.05071665 19:0.031973541 20:0 21:0 22:0.050000001 23:0.025 24:0.025 25:0 26:0 27:0.2 28:0.075000003 29:0.050000001 30:0.125 31:0.075000003 32:0.1 33:0.1 34:0.050000001 35:0.025 36:0.050000001 37:0 38:0 39:0.050000001 40:0 41:0.050000001 42:0 43:0 44:0.050000001 45:0.1 46:0.1 47:0.1 48:0 49:0.15000001 50:0.050000001 51:0.050000001 52:0 53:0 54:0 55:0 56:0.050000001 57:0.050000001 58:0 59:0 60:0.050000001 61:0.1 62:0.050000001 63:0 64:0.1 65:0.1 66:0.34999999 67:0 68:0 69:0 70:0 71:0 72:0.050000001 73:0.14888889 74:0.36190477 75:2.8761101 #LGR5_MOUSE
-0.10901801321586739035307545009346 1:0.047683924 2:0.046662126 3:0.031335149 4:0.050408721 5:0.066416897 6:0.042234331 7:0.041212533 8:0.088896461 9:0.057561308 10:0.026907356 11:0.069822885 12:0.074931882 13:0.057561308 14:0.048365124 15:0.037806541 16:0.026566757 17:0.012261581 18:0.057901908 19:0.014645777 20:0 21:0.1 22:0.075000003 23:0.075000003 24:0.025 25:0.075000003 26:0.050000001 27:0.075000003 28:0.050000001 29:0.050000001 30:0.075000003 31:0.025 32:0.050000001 33:0 34:0.050000001 35:0.050000001 36:0 37:0 38:0.1 39:0.1 40:0.050000001 41:0.050000001 42:0.15000001 43:0.050000001 44:0.1 45:0.050000001 46:0.050000001 47:0 48:0.1 49:0 50:0.1 51:0 52:0.050000001 53:0 54:0.050000001 55:0 56:0 57:0.050000001 58:0.050000001 59:0 60:0.050000001 61:0.050000001 62:0 63:0 64:0.15000001 65:0.1 66:0.15000001 67:0 68:0.2 69:0 70:0 71:0.1 72:0 73:-0.22333333 74:0.045502644 75:3.3796999 #NBEA_MOUSE
6 1:0.067518249 2:0.020072993 3:0.003649635 4:0.074817516 5:0.038321167 6:0.05839416 7:0.023722628 8:0.10036496 9:0.060218979 10:0.063868612 11:0.11678832 12:0.071167886 13:0.036496349 14:0.031021899 15:0.038321167 16:0.020072993 17:0.010948905 18:0.080291972 19:0.02919708 20:0.050000001 21:0 22:0 23:0 24:0.025 25:0.025 26:0.025 27:0.050000001 28:0.050000001 29:0.025 30:0.22499999 31:0.125 32:0.075000003 33:0.025 34:0.050000001 35:0.15000001 36:0 37:0 38:0 39:0 40:0 41:0 42:0 43:0.050000001 44:0.050000001 45:0.2 46:0.1 47:0.15000001 48:0.050000001 49:0 50:0.1 51:0.050000001 52:0.050000001 53:0.15000001 54:0.050000001 55:0 56:0 57:0 58:0 59:0 60:0 61:0.1 62:0.050000001 63:0.050000001 64:0.30000001 65:0.1 66:0.15000001 67:0 68:0 69:0.050000001 70:0 71:0.1 72:0 73:0.34888887 74:0.26878306 75:2.7309501 #GEL4_ASPFU
1.9702899935900235472985286833136 1:0.026515152 2:0.013257576 3:0.0094696973 4:0.017045455 5:0.075757578 6:0.018939395 7:0.022727273 8:0.19886364 9:0.19507575 10:0.011363637 11:0.14772727 12:0.094696969 13:0.045454547 14:0.024621213 15:0.015151516 16:0.0056818184 17:0.0094696973 18:0.053030305 19:0 20:0.025 21:0 22:0 23:0.025 24:0 25:0.050000001 26:0.025 27:0.075000003 28:0.125 29:0.025 30:0.2 31:0.050000001 32:0.075000003 33:0.025 34:0.050000001 35:0.125 36:0 37:0 38:0 39:0 40:0.050000001 41:0 42:0 43:0 44:0 45:0.30000001 46:0.050000001 47:0.15000001 48:0.1 49:0 50:0.050000001 51:0.050000001 52:0 53:0.15000001 54:0.050000001 55:0 56:0 57:0 58:0.050000001 59:0 60:0 61:0.2 62:0.050000001 63:0 64:0.2 65:0.1 66:0.15000001 67:0.050000001 68:0 69:0.050000001 70:0 71:0.050000001 72:0 73:0.37666667 74:0.3068783 75:2.6991899 #FIT1_YEAST
-0.013532645791771684071203019072982 1:0 2:0.022727273 3:0 4:0.018181818 5:0.027272727 6:0.10909091 7:0.027272727 8:0.55454546 9:0.036363635 10:0 11:0.090909094 12:0.013636364 13:0.013636364 14:0 15:0 16:0 17:0.0045454544 18:0.077272728 19:0 20:0 21:0 22:0 23:0.025 24:0.075000003 25:0 26:0 27:0.72500002 28:0.025 29:0 30:0.075000003 31:0.025 32:0 33:0 34:0 35:0.025 36:0 37:0 38:0 39:0 40:0 41:0.050000001 42:0 43:0 44:0 45:0.050000001 46:0 47:0 48:0 49:0 50:0 51:0 52:0.050000001 53:0 54:0 55:0 56:0 57:0 58:0 59:0.2 60:0 61:0.60000002 62:0.1 63:0 64:0 65:0 66:0 67:0 68:0 69:0 70:0 71:0.1 72:0 73:-0.18000001 74:-0.28148147 75:2.5807099 #SER2_GALME
-2.6871538489047170905621442216216 1:0.085714288 2:0.035714287 3:0 4:0.050000001 5:0.021428572 6:0.035714287 7:0.0071428572 8:0.085714288 9:0.057142857 10:0.057142857 11:0.12142857 12:0.092857145 13:0.042857144 14:0.035714287 15:0.021428572 16:0.021428572 17:0.014285714 18:0.13571429 19:0 20:0.025 21:0 22:0 23:0.025 24:0 25:0.025 26:0.025 27:0.075000003 28:0.075000003 29:0.050000001 30:0.2 31:0.1 32:0.15000001 33:0 34:0 35:0.175 36:0 37:0 38:0 39:0 40:0 41:0 42:0.050000001 43:0.050000001 44:0.050000001 45:0.25 46:0.050000001 47:0.25 48:0.050000001 49:0 50:0 51:0 52:0 53:0.15000001 54:0.050000001 55:0 56:0 57:0 58:0.050000001 59:0 60:0 61:0.15000001 62:0.1 63:0 64:0.15000001 65:0.15000001 66:0.1 67:0 68:0.050000001 69:0.050000001 70:0 71:0.050000001 72:0 73:0.28555554 74:0.15978836 75:2.68223 #PSBR_ARATH
-6 1:0.013215859 2:0.039647575 3:0 4:0.039647575 5:0.017621145 6:0.070484579 7:0.057268724 8:0.12334802 9:0.096916303 10:0.0044052862 11:0.13656388 12:0.052863438 13:0.06167401 14:0.039647575 15:0.030837005 16:0.017621145 17:0 18:0.092511013 19:0.035242289 20:0 21:0.025 22:0 23:0 24:0.025 25:0.050000001 26:0 27:0.075000003 28:0.025 29:0 30:0.27500001 31:0.1 32:0.1 33:0.050000001 34:0.050000001 35:0.2 36:0 37:0 38:0 39:0 40:0 41:0 42:0 43:0 44:0 45:0.34999999 46:0.1 47:0.2 48:0 49:0 50:0.1 51:0.050000001 52:0 53:0.2 54:0.050000001 55:0.050000001 56:0 57:0.050000001 58:0 59:0.050000001 60:0.050000001 61:0.050000001 62:0 63:0 64:0.30000001 65:0.15000001 66:0.1 67:0.1 68:0 69:0 70:0 71:0 72:0 73:0.46777779 74:0.27513227 75:2.53614 #CAP22_COLGL
-2.4438419189719930990634111367399 1:0.0056497175 2:0.050847456 3:0.028248588 4:0.04519774 5:0.028248588 6:0.016949153 7:0.04519774 8:0.04519774 9:0.073446326 10:0.011299435 11:0.13559322 12:0.050847456 13:0 14:0.073446326 15:0.011299435 16:0.011299435 17:0.04519774 18:0.073446326 19:0.050847456 20:0 21:0.025 22:0 23:0.050000001 24:0.025 25:0 26:0.050000001 27:0.025 28:0.050000001 29:0 30:0.22499999 31:0.125 32:0.25 33:0.025 34:0 35:0.075000003 36:0.025 37:0 38:0 39:0 40:0.050000001 41:0.050000001 42:0 43:0 44:0 45:0.30000001 46:0 47:0.34999999 48:0 49:0 50:0 51:0 52:0 53:0.1 54:0.050000001 55:0 56:0 57:0.050000001 58:0.050000001 59:0 60:0 61:0 62:0.1 63:0 64:0.25 65:0 66:0.15000001 67:0 68:0.050000001 69:0.050000001 70:0.1 71:0.050000001 72:0.050000001 73:0.34111112 74:0.10476191 75:2.7014899 #GPIX_HUMAN
-0.0024925139097510397127865910960054 1:0.072340429 2:0.21702127 3:0 4:0.14893617 5:0.25531915 6:0.051063828 7:0 8:0 9:0 10:0 11:0.012765957 12:0.008510638 13:0 14:0.14042553 15:0.017021276 16:0.012765957 17:0 18:0.012765957 19:0.051063828 20:0.1 21:0.22499999 22:0 23:0.22499999 24:0.15000001 25:0.075000003 26:0 27:0 28:0 29:0 30:0.025 31:0.025 32:0 33:0.025 34:0.025 35:0.025 36:0.075000003 37:0.1 38:0.2 39:0 40:0.25 41:0.15000001 42:0.050000001 43:0 44:0 45:0.050000001 46:0 47:0 48:0 49:0.050000001 50:0 51:0 52:0 53:0.050000001 54:0.1 55:0.15000001 56:0 57:0.34999999 58:0.15000001 59:0.1 60:0 61:0 62:0 63:0 64:0 65:0 66:0 67:0 68:0.15000001 69:0 70:0 71:0 72:0 73:-0.58333331 74:-0.75767195 75:3.5451801 #BAR6_CHITE
-0.10188835840768249718646387691479 1:0.074257426 2:0.089108914 3:0.0099009899 4:0.084158413 5:0.074257426 6:0.049504951 7:0.01980198 8:0.11881188 9:0.034653466 10:0.014851485 11:0.054455444 12:0.07920792 13:0.029702971 14:0.044554457 15:0.03960396 16:0.029702971 17:0.004950495 18:0.03960396 19:0 20:0.2 21:0.025 22:0 23:0.050000001 24:0.125 25:0.1 26:0 27:0 28:0.025 29:0.025 30:0.025 31:0.175 32:0.050000001 33:0.050000001 34:0 35:0.025 36:0 37:0.15000001 38:0.050000001 39:0 40:0.050000001 41:0.15000001 42:0.15000001 43:0 44:0 45:0 46:0.25 47:0 48:0.050000001 49:0.050000001 50:0 51:0.050000001 52:0 53:0 54:0.050000001 55:0.050000001 56:0 57:0 58:0 59:0 60:0 61:0.34999999 62:0 63:0 64:0.1 65:0 66:0.25 67:0 68:0 69:0.1 70:0 71:0.050000001 72:0 73:-0.17333333 74:0.20634921 75:3.39921 #HS22M_PEA
-0.98650107811323528572700070071733 1:0.089743592 2:0.028846154 3:0.012820513 4:0.035256412 5:0.051282052 6:0.03846154 7:0.016025642 8:0.083333336 9:0.057692308 10:0.044871796 11:0.067307696 12:0.089743592 13:0.073717952 14:0.03846154 15:0.035256412 16:0.032051284 17:0.012820513 18:0.080128208 19:0.0064102565 20:0.15000001 21:0.025 22:0.050000001 23:0 24:0 25:0.1 26:0 27:0.075000003 28:0.050000001 29:0.050000001 30:0.050000001 31:0.025 32:0.15000001 33:0.025 34:0 35:0.025 36:0 37:0.25 38:0.050000001 39:0.050000001 40:0 41:0 42:0.15000001 43:0 44:0.050000001 45:0.050000001 46:0.050000001 47:0.050000001 48:0.050000001 49:0 50:0 51:0.1 52:0 53:0 54:0 55:0 56:0 57:0 58:0.050000001 59:0 60:0 61:0.050000001 62:0.050000001 63:0.050000001 64:0.25 65:0.1 66:0.1 67:0 68:0.050000001 69:0.050000001 70:0.050000001 71:0.15000001 72:0 73:-0.25666666 74:0.19470899 75:3.4795599 #DHB12_HUMAN
3.2281748810728343457299160945695 1:0.030050084 2:0.063439064 3:0.033388983 4:0.055091821 5:0.041736227 6:0.026711185 7:0.033388983 8:0.065108515 9:0.056761269 10:0.028380634 11:0.15025042 12:0.0884808 13:0.040066779 14:0.046744574 15:0.031719532 16:0.021702837 17:0.011686143 18:0.081803001 19:0.033388983 20:0.025 21:0.075000003 22:0 23:0.025 24:0.025 25:0.050000001 26:0.050000001 27:0 28:0.025 29:0 30:0.32499999 31:0.1 32:0.125 33:0.025 34:0 35:0.125 36:0.025 37:0 38:0.1 39:0 40:0 41:0 42:0 43:0 44:0 45:0.40000001 46:0.1 47:0.25 48:0 49:0.050000001 50:0 51:0 52:0 53:0.050000001 54:0 55:0.2 56:0.1 57:0.050000001 58:0 59:0 60:0 61:0.25 62:0.050000001 63:0 64:0.1 65:0.15000001 66:0.050000001 67:0 68:0 69:0 70:0 71:0 72:0 73:0.33444443 74:-0.073015876 75:2.4520199 #GP63_LEICH
4.2387077358018698802766266453546 1:0.036931816 2:0.045454547 3:0.025568182 4:0.039772727 5:0.045454547 6:0.039772727 7:0.042613637 8:0.082386367 9:0.096590906 10:0.017045455 11:0.079545453 12:0.065340906 13:0.022727273 14:0.065340906 15:0.017045455 16:0.019886363 17:0.0085227275 18:0.10795455 19:0.053977273 20:0.075000003 21:0 22:0 23:0.025 24:0.025 25:0.025 26:0.025 27:0.125 28:0.025 29:0 30:0.125 31:0.050000001 32:0.125 33:0.050000001 34:0.025 35:0.175 36:0 37:0 38:0 39:0 40:0.050000001 41:0 42:0 43:0 44:0 45:0.2 46:0.1 47:0.25 48:0.050000001 49:0 50:0 51:0.050000001 52:0.050000001 53:0.1 54:0 55:0.15000001 56:0 57:0.1 58:0 59:0 60:0.050000001 61:0 62:0.15000001 63:0 64:0.1 65:0.050000001 66:0.1 67:0 68:0.050000001 69:0 70:0.1 71:0.050000001 72:0 73:0.37222221 74:-0.073015876 75:2.6302299 #LYPD3_RAT
1.5225971974787548823826455191011 1:0.012396694 2:0.024793388 3:0.020661157 4:0.045454547 5:0.037190083 6:0.053719006 7:0.041322313 8:0.12809917 9:0.090909094 10:0.012396694 11:0.13636364 12:0.053719006 13:0.03305785 14:0.041322313 15:0.049586777 16:0.016528925 17:0.0041322312 18:0.10330579 19:0.016528925 20:0 21:0 22:0.025 23:0 24:0.025 25:0 26:0.025 27:0.15000001 28:0.15000001 29:0 30:0.25 31:0.1 32:0.1 33:0 34:0 35:0.125 36:0 37:0 38:0 39:0 40:0 41:0.050000001 42:0 43:0 44:0 45:0.25 46:0.15000001 47:0.2 48:0.050000001 49:0 50:0 51:0 52:0.050000001 53:0.2 54:0.050000001 55:0.050000001 56:0.050000001 57:0 58:0 59:0 60:0 61:0.050000001 62:0 63:0.050000001 64:0.25 65:0.050000001 66:0.1 67:0.050000001 68:0.1 69:0.15000001 70:0 71:0 72:0 73:0.38444445 74:0.23809524 75:2.60535 #YA280_ASPFU
-2.204466240357902062640960139106 1:0.019083969 2:0.072519086 3:0.022900764 4:0.015267176 5:0.034351144 6:0.030534351 7:0.030534351 8:0.091603056 9:0.061068702 10:0.034351144 11:0.091603056 12:0.11832061 13:0.026717557 14:0.072519086 15:0.015267176 16:0.015267176 17:0.022900764 18:0.064885497 19:0.022900764 20:0.025 21:0.025 22:0 23:0 24:0 25:0 26:0.025 27:0.1 28:0.1 29:0.050000001 30:0.2 31:0.15000001 32:0.175 33:0.025 34:0 35:0.050000001 36:0 37:0.050000001 38:0.050000001 39:0 40:0 41:0 42:0 43:0.050000001 44:0.1 45:0.15000001 46:0.25 47:0.15000001 48:0.050000001 49:0 50:0 51:0 52:0 53:0.1 54:0 55:0.050000001 56:0 57:0 58:0.050000001 59:0 60:0 61:0.1 62:0 63:0.050000001 64:0.15000001 65:0.050000001 66:0.30000001 67:0 68:0.1 69:0 70:0 71:0.1 72:0 73:0.29222223 74:0.1968254 75:2.6798301 #ICAM4_MOUSE
-3.4332900309903595648108876048354 1:0.029585799 2:0.047337279 3:0.059171598 4:0.0059171598 5:0.029585799 6:0.023668639 7:0.01775148 8:0.094674557 9:0.053254437 10:0.01183432 11:0.088757396 12:0.065088756 13:0.047337279 14:0.047337279 15:0.035502959 16:0.041420117 17:0.023668639 18:0.082840234 19:0.023668639 20:0.025 21:0.025 22:0.050000001 23:0.025 24:0 25:0.025 26:0.050000001 27:0.1 28:0.050000001 29:0 30:0.075000003 31:0.125 32:0.2 33:0 34:0 35:0.125 36:0 37:0 38:0 39:0 40:0 41:0 42:0 43:0.050000001 44:0 45:0.15000001 46:0.25 47:0.2 48:0 49:0 50:0 51:0.050000001 52:0 53:0.1 54:0 55:0.15000001 56:0.15000001 57:0 58:0 59:0 60:0 61:0.050000001 62:0 63:0 64:0.15000001 65:0.050000001 66:0.25 67:0 68:0.050000001 69:0 70:0 71:0.050000001 72:0.050000001 73:0.40111113 74:0.03809524 75:2.75014 #C560_BOVIN
-2.016732752009207541021851284313 1:0 2:0 3:0 4:0 5:0.026666667 6:0.026666667 7:0.053333335 8:0.22666667 9:0.16 10:0 11:0.2 12:0.053333335 13:0.013333334 14:0.093333334 15:0 16:0.026666667 17:0 18:0.053333335 19:0 20:0 21:0 22:0 23:0 24:0.025 25:0 26:0.1 27:0.15000001 28:0.22499999 29:0 30:0.175 31:0.050000001 32:0.1 33:0.050000001 34:0 35:0.1 36:0 37:0 38:0 39:0 40:0 41:0 42:0 43:0.15000001 44:0 45:0.30000001 46:0.1 47:0.1 48:0 49:0 50:0 51:0.050000001 52:0 53:0.15000001 54:0 55:0 56:0 57:0 58:0 59:0.1 60:0 61:0.15000001 62:0.15000001 63:0 64:0.25 65:0.1 66:0.050000001 67:0.050000001 68:0.15000001 69:0 70:0 71:0 72:0 73:0.16444445 74:0.091005288 75:2.6630599 #PO2F1_MACEU
-1.2029642541042753212110483218567 1:0.06666667 2:0.039999999 3:0.0088888891 4:0.060740739 5:0.063703701 6:0.06666667 7:0.035555556 8:0.074074075 9:0.044444446 10:0.034074076 11:0.060740739 12:0.063703701 13:0.056296296 14:0.042962965 15:0.04148148 16:0.013333334 17:0.0088888891 18:0.074074075 19:0.053333335 20:0.075000003 21:0.050000001 22:0.050000001 23:0.075000003 24:0.050000001 25:0.1 26:0.050000001 27:0.1 28:0 29:0 30:0.050000001 31:0.075000003 32:0.050000001 33:0.025 34:0.025 35:0.050000001 36:0.050000001 37:0.15000001 38:0.1 39:0.1 40:0.050000001 41:0 42:0.1 43:0.050000001 44:0 45:0.050000001 46:0.050000001 47:0 48:0.1 49:0.050000001 50:0.050000001 51:0 52:0 53:0 54:0 55:0.15000001 56:0 57:0 58:0 59:0 60:0 61:0.050000001 62:0 63:0 64:0.1 65:0.2 66:0.30000001 67:0 68:0.050000001 69:0.050000001 70:0 71:0 72:0.050000001 73:-0.26666668 74:0.32804233 75:3.25792 #PROS_RAT
-0.10020383407804848985289680740607 1:0.086757988 2:0.036529679 3:0.02739726 4:0.06849315 5:0.05479452 6:0.022831051 7:0.063926943 8:0.05479452 9:0.050228309 10:0.02739726 11:0.086757988 12:0.06849315 13:0.06849315 14:0.0091324197 15:0.050228309 16:0.018264839 17:0.018264839 18:0.063926943 19:0.022831051 20:0.1 21:0.025 22:0.025 23:0 24:0.025 25:0.025 26:0.075000003 27:0.050000001 28:0.025 29:0 30:0.075000003 31:0.125 32:0.1 33:0 34:0.050000001 35:0.050000001 36:0.025 37:0.2 38:0 39:0.050000001 40:0 41:0 42:0 43:0.1 44:0 45:0 46:0.1 47:0.1 48:0.050000001 49:0 50:0.1 51:0.050000001 52:0.050000001 53:0.1 54:0 55:0 56:0 57:0 58:0 59:0 60:0.1 61:0.050000001 62:0.050000001 63:0 64:0.1 65:0.15000001 66:0.30000001 67:0 68:0.050000001 69:0.050000001 70:0 71:0 72:0.1 73:0.025555555 74:0.4010582 75:3.26366 #ERP1_YEAST
-1.074361978079886537074116859003 1:0.059405942 2:0.035643563 3:0.023762377 4:0.047524754 5:0.065346532 6:0.04158416 7:0.029702971 8:0.073267326 9:0.051485147 10:0.049504951 11:0.063366339 12:0.065346532 13:0.063366339 14:0.035643563 15:0.04158416 16:0.031683169 17:0.015841585 18:0.07920792 19:0.013861386 20:0.050000001 21:0.025 22:0.075000003 23:0.075000003 24:0.075000003 25:0.050000001 26:0.025 27:0.025 28:0.050000001 29:0.050000001 30:0.175 31:0 32:0.125 33:0 34:0 35:0.050000001 36:0 37:0.1 38:0 39:0.050000001 40:0.15000001 41:0.1 42:0.050000001 43:0.050000001 44:0.050000001 45:0 46:0 47:0.15000001 48:0.050000001 49:0 50:0 51:0.050000001 52:0 53:0.1 54:0 55:0.050000001 56:0 57:0 58:0.050000001 59:0 60:0 61:0.1 62:0 63:0 64:0.050000001 65:0.15000001 66:0.34999999 67:0 68:0 69:0 70:0.050000001 71:0.1 72:0.050000001 73:-0.23555556 74:0.35238096 75:3.3043101 #PCYOX_HUMAN
5.0547909029742568165488592057955 1:0.049382716 2:0.088888891 3:0.022222223 4:0.032098766 5:0.079012349 6:0.059259258 7:0.0098765437 8:0.071604937 9:0.054320987 10:0.029629629 11:0.076543212 12:0.088888891 13:0.039506175 14:0.0098765437 15:0.0345679 16:0.024691358 17:0.014814815 18:0.093827158 19:0.014814815 20:0.025 21:0.1 22:0 23:0.025 24:0.125 25:0.025 26:0.025 27:0.025 28:0.050000001 29:0 30:0.075000003 31:0.1 32:0.22499999 33:0 34:0.050000001 35:0.075000003 36:0.025 37:0 38:0.15000001 39:0 40:0.050000001 41:0 42:0 43:0 44:0 45:0.1 46:0.050000001 47:0.30000001 48:0 49:0 50:0.1 51:0 52:0 53:0.1 54:0 55:0.15000001 56:0 57:0 58:0 59:0.050000001 60:0 61:0.050000001 62:0.1 63:0 64:0.1 65:0.1 66:0.15000001 67:0.15000001 68:0 69:0.1 70:0 71:0 72:0 73:0.21555555 74:0.3068783 75:2.6861401 #PAG1_TRYBB
6 1:0.044198897 2:0.044198897 3:0.027624309 4:0.027624309 5:0.060773481 6:0.022099448 7:0.066298343 8:0.099447511 9:0.071823202 10:0.011049724 11:0.044198897 12:0.060773481 13:0.060773481 14:0.022099448 15:0.044198897 16:0.016574586 17:0.011049724 18:0.093922652 19:0.044198897 20:0.050000001 21:0.025 22:0.050000001 23:0 24:0.075000003 25:0.025 26:0.1 27:0.1 28:0.050000001 29:0 30:0.050000001 31:0.1 32:0.2 33:0 34:0.050000001 35:0.075000003 36:0 37:0.050000001 38:0 39:0 40:0 41:0.050000001 42:0 43:0.1 44:0 45:0.1 46:0.2 47:0.25 48:0 49:0 50:0.050000001 51:0.050000001 52:0.050000001 53:0 54:0 55:0.050000001 56:0 57:0.050000001 58:0.050000001 59:0 60:0 61:0 62:0 63:0 64:0.15000001 65:0.050000001 66:0.25 67:0.1 68:0.050000001 69:0 70:0 71:0.1 72:0.1 73:0.30333334 74:0.37142858 75:2.7740099 #BY55_HUMAN
0.37783574806862751938041355970199 1:0.043037973 2:0.015189873 3:0.0025316456 4:0.053164557 5:0.032911394 6:0.025316456 7:0.025316456 8:0.15696202 9:0.13670886 10:0.035443038 11:0.10886076 12:0.065822788 13:0.022784811 14:0.053164557 15:0.032911394 16:0.010126582 17:0.020253165 18:0.10632911 19:0.010126582 20:0.025 21:0 22:0 23:0 24:0.025 25:0 26:0.025 27:0.15000001 28:0.075000003 29:0 30:0.27500001 31:0.1 32:0.075000003 33:0.025 34:0.050000001 35:0.125 36:0.025 37:0.050000001 38:0 39:0 40:0 41:0 42:0 43:0 44:0 45:0.30000001 46:0.2 47:0.1 48:0 49:0 50:0.1 51:0 52:0 53:0.1 54:0.050000001 55:0 56:0 57:0 58:0 59:0 60:0.050000001 61:0.050000001 62:0.050000001 63:0.1 64:0.30000001 65:0.050000001 66:0.15000001 67:0 68:0.050000001 69:0.050000001 70:0 71:0 72:0.050000001 73:0.41222224 74:0.20952381 75:2.52685 #CRF1_ASPFU
-4.1738290025847719633134147443343 1:0.057239056 2:0.05050505 3:0.026936026 4:0.04882155 5:0.060606062 6:0.055555556 7:0.042087544 8:0.10942761 9:0.047138046 10:0.045454547 11:0.038720537 12:0.053872053 13:0.070707068 14:0.042087544 15:0.082491584 16:0.015151516 17:0.0067340066 18:0.05050505 19:0.026936026 20:0.050000001 21:0.050000001 22:0 23:0 24:0.025 25:0.025 26:0.075000003 27:0.175 28:0.1 29:0.025 30:0.025 31:0.050000001 32:0.1 33:0.025 34:0.15000001 35:0 36:0 37:0 38:0.050000001 39:0 40:0 41:0 42:0.050000001 43:0 44:0.050000001 45:0.050000001 46:0.050000001 47:0.15000001 48:0.15000001 49:0 50:0.30000001 51:0 52:0 53:0 54:0 55:0.1 56:0 57:0.050000001 58:0.050000001 59:0 60:0 61:0 62:0 63:0.050000001 64:0.050000001 65:0.050000001 66:0.25 67:0.1 68:0.050000001 69:0.1 70:0 71:0.050000001 72:0.050000001 73:0.40111113 74:0.25291005 75:2.7572 #SOL1_CAEEL
-6 1:0.032828283 2:0.02020202 3:0.015151516 4:0.045454547 5:0.04040404 6:0.06818182 7:0.027777778 8:0.12121212 9:0.090909094 10:0.060606062 11:0.06818182 12:0.060606062 13:0.047979798 14:0.032828283 15:0.053030305 16:0.022727273 17:0.012626262 18:0.088383839 19:0.022727273 20:0 21:0.025 22:0 23:0 24:0 25:0.075000003 26:0.050000001 27:0.1 28:0.15000001 29:0.050000001 30:0.1 31:0.1 32:0.1 33:0.025 34:0.050000001 35:0.050000001 36:0 37:0 38:0 39:0 40:0 41:0 42:0.050000001 43:0.050000001 44:0.1 45:0.1 46:0.15000001 47:0.1 48:0.15000001 49:0 50:0.1 51:0 52:0.050000001 53:0.050000001 54:0 55:0 56:0.050000001 57:0 58:0 59:0 60:0.050000001 61:0.15000001 62:0.050000001 63:0 64:0.1 65:0.15000001 66:0.15000001 67:0.050000001 68:0 69:0.050000001 70:0 71:0 72:0.050000001 73:0.34 74:0.34814814 75:2.80516 #YJR1_YEAST
-3.600992218073914230558330018539 1:0.02112676 2:0.056338027 3:0 4:0.014084507 5:0.028169014 6:0.02112676 7:0.04225352 8:0.1056338 9:0.049295776 10:0.02112676 11:0.15492958 12:0.056338027 13:0.077464789 14:0.028169014 15:0.070422538 16:0.028169014 17:0 18:0.11267605 19:0.02112676 20:0.025 21:0.025 22:0 23:0 24:0.025 25:0.025 26:0.050000001 27:0.075000003 28:0 29:0.050000001 30:0.15000001 31:0.025 32:0.2 33:0.025 34:0.125 35:0.050000001 36:0.025 37:0 38:0 39:0 40:0 41:0.050000001 42:0 43:0 44:0 45:0.15000001 46:0.050000001 47:0.25 48:0.050000001 49:0 50:0.15000001 51:0.15000001 52:0 53:0.050000001 54:0.050000001 55:0.1 56:0 57:0 58:0 59:0 60:0 61:0.1 62:0.050000001 63:0 64:0.2 65:0.050000001 66:0.1 67:0.050000001 68:0.050000001 69:0.050000001 70:0 71:0.050000001 72:0.1 73:0.5 74:0.18835978 75:2.7060201 #AT5G3_HUMAN
-1.0409011569806339014832019529422 1:0.11442786 2:0.074626863 3:0.0099502485 4:0.024875622 5:0.26368159 6:0.06467662 7:0.0049751243 8:0.06467662 9:0.014925373 10:0.044776119 11:0.044776119 12:0.019900497 13:0.039800994 14:0.024875622 15:0.034825869 16:0.039800994 17:0 18:0.06467662 19:0.0049751243 20:0.175 21:0.075000003 22:0.050000001 23:0.025 24:0.125 25:0.025 26:0 27:0.050000001 28:0 29:0.025 30:0.050000001 31:0.075000003 32:0.025 33:0.050000001 34:0.025 35:0.1 36:0 37:0.2 38:0.050000001 39:0.050000001 40:0.050000001 41:0.050000001 42:0 43:0 44:0.050000001 45:0.050000001 46:0.050000001 47:0.050000001 48:0.1 49:0 50:0.050000001 51:0.1 52:0 53:0.1 54:0.1 55:0 56:0 57:0 58:0 59:0 60:0 61:0.2 62:0 63:0 64:0 65:0.050000001 66:0.40000001 67:0.050000001 68:0 69:0.1 70:0 71:0.050000001 72:0 73:-0.086666666 74:0.42010581 75:3.1995499 #DEM_PACDA
-1.1083388076373619224312960795942 1:0.053453948 2:0.033717107 3:0.024671054 4:0.038651317 5:0.066611841 6:0.045230262 7:0.035361841 8:0.094572365 9:0.076480262 10:0.045230262 11:0.048519738 12:0.080592103 13:0.056743421 14:0.061677631 15:0.053453948 16:0.027138159 17:0.019736841 18:0.041118421 19:0.016447369 20:0.1 21:0 22:0.025 23:0.025 24:0.075000003 25:0.025 26:0.15000001 27:0.1 28:0.025 29:0.050000001 30:0 31:0.1 32:0.025 33:0 34:0.050000001 35:0 36:0.050000001 37:0.2 38:0 39:0 40:0.050000001 41:0.050000001 42:0.050000001 43:0.1 44:0.050000001 45:0 46:0.1 47:0 48:0.1 49:0 50:0.050000001 51:0.050000001 52:0 53:0 54:0 55:0.1 56:0.1 57:0 58:0 59:0 60:0 61:0 62:0.050000001 63:0 64:0.050000001 65:0 66:0.30000001 67:0.050000001 68:0.1 69:0 70:0.050000001 71:0.15000001 72:0 73:-0.13555555 74:0.13121693 75:3.39135 #PTPRO_HUMAN
-0.40400484549456811000922584753425 1:0.012199922 2:0.021251475 3:0.0188902 4:0.018496655 5:0.036206219 6:0.020070838 7:0.018496655 8:0.19362456 9:0.27233374 10:0.012987013 11:0.036206219 12:0.044864226 13:0.046831954 14:0.083825268 15:0.030696576 16:0.0188902 17:0.007477371 18:0.028728846 19:0.0090515548 20:0.075000003 21:0.025 22:0.050000001 23:0.125 24:0.075000003 25:0.075000003 26:0 27:0.075000003 28:0.125 29:0 30:0.025 31:0.1 32:0.025 33:0.025 34:0.050000001 35:0.050000001 36:0 37:0.1 38:0.050000001 39:0.050000001 40:0.050000001 41:0.050000001 42:0.050000001 43:0 44:0 45:0 46:0.15000001 47:0 48:0.050000001 49:0.050000001 50:0 51:0.1 52:0 53:0 54:0.050000001 55:0 56:0 57:0 58:0 59:0 60:0.050000001 61:0.050000001 62:0.050000001 63:0 64:0.1 65:0 66:0.34999999 67:0 68:0.050000001 69:0 70:0.1 71:0.1 72:0 73:-0.12444445 74:0.21693122 75:3.28231 #MUC3A_HUMAN
1.6117944360925020585995071087382 1:0.033096928 2:0.01891253 3:0.0070921984 4:0.044917259 5:0.023640662 6:0.044917259 7:0.021276595 8:0.1465721 9:0.063829787 10:0.035460994 11:0.075650118 12:0.059101656 13:0.066193856 14:0.08510638 15:0.030732861 16:0.023640662 17:0 18:0.070921987 19:0.04255319 20:0 21:0 22:0 23:0 24:0 25:0.050000001 26:0 27:0.175 28:0 29:0.050000001 30:0.075000003 31:0.025 32:0.075000003 33:0.125 34:0.1 35:0.125 36:0.050000001 37:0 38:0 39:0 40:0 41:0 42:0 43:0 44:0.1 45:0.050000001 46:0.050000001 47:0.15000001 48:0.15000001 49:0.050000001 50:0.2 51:0 52:0 53:0.050000001 54:0.1 55:0 56:0 57:0 58:0.050000001 59:0.050000001 60:0 61:0.15000001 62:0 63:0 64:0.1 65:0 66:0.30000001 67:0.050000001 68:0.1 69:0.050000001 70:0 71:0 72:0 73:0.41777778 74:0.18095239 75:2.7269101 #LYM3_ARATH
6 1:0.043859649 2:0.03508772 3:0.013157895 4:0.057017542 5:0.039473683 6:0.052631579 7:0.052631579 8:0.10307018 9:0.065789476 10:0.013157895 11:0.057017542 12:0.070175439 13:0.076754384 14:0.032894738 15:0.050438598 16:0.024122806 17:0.01754386 18:0.098684214 19:0.030701755 20:0.025 21:0.075000003 22:0 23:0.025 24:0 25:0.025 26:0.1 27:0.075000003 28:0.075000003 29:0.050000001 30:0.050000001 31:0.1 32:0.1 33:0.050000001 34:0.050000001 35:0.025 36:0 37:0 38:0.050000001 39:0 40:0 41:0 42:0.050000001 43:0 44:0.1 45:0.1 46:0.15000001 47:0.15000001 48:0.2 49:0 50:0.050000001 51:0 52:0 53:0 54:0.15000001 55:0 56:0 57:0 58:0 59:0.050000001 60:0.050000001 61:0.1 62:0.1 63:0 64:0 65:0 66:0.15000001 67:0.050000001 68:0 69:0.25 70:0.050000001 71:0 72:0 73:0.39444444 74:0.088888891 75:2.8969901 #PGLRL_ARATH
6 1:0.072625697 2:0.072625697 3:0.022346368 4:0.033519555 5:0.055865921 6:0.044692736 7:0.044692736 8:0.05027933 9:0.033519555 10:0.027932961 11:0.10614525 12:0.072625697 13:0.05027933 14:0.022346368 15:0.044692736 16:0.022346368 17:0.039106146 18:0.06703911 19:0.033519555 20:0.075000003 21:0.050000001 22:0.025 23:0.050000001 24:0.050000001 25:0 26:0.025 27:0.025 28:0 29:0 30:0.125 31:0.125 32:0.1 33:0.025 34:0.075000003 35:0.050000001 36:0.075000003 37:0.050000001 38:0 39:0 40:0.050000001 41:0 42:0 43:0.050000001 44:0 45:0.1 46:0.25 47:0.1 48:0.050000001 49:0.050000001 50:0.1 51:0.050000001 52:0.050000001 53:0.050000001 54:0.050000001 55:0.050000001 56:0.050000001 57:0 58:0 59:0.050000001 60:0 61:0.050000001 62:0.050000001 63:0 64:0.1 65:0.050000001 66:0.2 67:0.050000001 68:0 69:0 70:0.1 71:0.050000001 72:0.050000001 73:0.36555555 74:0.1989418 75:3.0058701 #PRND_MOUSE
-4.683433378844402028562399209477 1:0.073463269 2:0.0059970017 3:0.010494753 4:0.044977512 5:0.052473765 6:0.061469264 7:0.026986506 8:0.083958022 9:0.11544228 10:0.026986506 11:0.091454275 12:0.052473765 13:0.025487257 14:0.034482758 15:0.017991005 16:0.010494753 17:0.0029985008 18:0.10644678 19:0.11994003 20:0.050000001 21:0.025 22:0 23:0 24:0 25:0.025 26:0 27:0.1 28:0.025 29:0 30:0.15000001 31:0.175 32:0.075000003 33:0 34:0.050000001 35:0.15000001 36:0.050000001 37:0.050000001 38:0.050000001 39:0 40:0 41:0 42:0 43:0 44:0 45:0.1 46:0.2 47:0.1 48:0.050000001 49:0 50:0.1 51:0 52:0.1 53:0.15000001 54:0.050000001 55:0 56:0 57:0 58:0 59:0 60:0.050000001 61:0.050000001 62:0.2 63:0.050000001 64:0.1 65:0.050000001 66:0.15000001 67:0.1 68:0 69:0.1 70:0 71:0 72:0.050000001 73:0.35222223 74:0.26666668 75:2.8436999 #TS11_GIALA
-2.5192103557601517316300032689469 1:0.031078611 2:0.034734916 3:0.025594151 4:0.060329068 5:0.036563072 6:0.078610606 7:0.034734916 8:0.1023766 9:0.058500916 10:0.04570384 11:0.031078611 12:0.051188301 13:0.087751374 14:0.043875687 15:0.067641683 16:0.025594151 17:0.010968922 18:0.049360145 19:0.016453382 20:0.075000003 21:0.050000001 22:0 23:0.025 24:0 25:0.050000001 26:0 27:0.1 28:0.050000001 29:0.025 30:0.050000001 31:0.175 32:0.15000001 33:0 34:0.050000001 35:0.050000001 36:0.025 37:0 38:0 39:0 40:0 41:0 42:0 43:0 44:0.050000001 45:0 46:0.25 47:0.15000001 48:0.1 49:0 50:0.050000001 51:0.050000001 52:0.050000001 53:0.050000001 54:0 55:0.1 56:0.050000001 57:0 58:0 59:0.050000001 60:0 61:0.1 62:0.050000001 63:0.050000001 64:0.1 65:0.050000001 66:0.050000001 67:0.050000001 68:0.1 69:0.1 70:0 71:0 72:0.050000001 73:0.44111112 74:0.024338624 75:2.7464099 #YD180_YEAST
-0.015214083838002330495431380086302 1:0.055555556 2:0.035353534 3:0.01010101 4:0.075757578 5:0.10606061 6:0.025252525 7:0.02020202 8:0.080808081 9:0.025252525 10:0.025252525 11:0.055555556 12:0.090909094 13:0.060606062 14:0.070707068 15:0.045454547 16:0.025252525 17:0 18:0.085858583 19:0 20:0.175 21:0.025 22:0 23:0.050000001 24:0.050000001 25:0.025 26:0 27:0.025 28:0.025 29:0.1 30:0.075000003 31:0.025 32:0.15000001 33:0.050000001 34:0.075000003 35:0.050000001 36:0 37:0.2 38:0 39:0 40:0.050000001 41:0.050000001 42:0.050000001 43:0 44:0.15000001 45:0.1 46:0 47:0.050000001 48:0.050000001 49:0.1 50:0.050000001 51:0 52:0 53:0.050000001 54:0 55:0.050000001 56:0 57:0 58:0.050000001 59:0 60:0 61:0.050000001 62:0 63:0 64:0.2 65:0.1 66:0.2 67:0 68:0.050000001 69:0.15000001 70:0 71:0.1 72:0 73:-0.22666667 74:0.36402115 75:3.28862 #SDC4_HUMAN
-0.30978232885329604062718544810195 1:0.042857144 2:0.1 3:0.028571429 4:0.028571429 5:0.057142857 6:0.042857144 7:0.014285714 8:0.057142857 9:0.014285714 10:0.057142857 11:0.057142857 12:0.1 13:0.057142857 14:0.042857144 15:0.042857144 16:0.057142857 17:0.028571429 18:0.1 19:0.014285714 20:0.075000003 21:0.125 22:0.025 23:0.050000001 24:0.075000003 25:0.075000003 26:0.025 27:0.075000003 28:0 29:0.1 30:0.025 31:0.1 32:0.050000001 33:0.025 34:0 35:0.1 36:0 37:0.050000001 38:0.15000001 39:0 40:0.1 41:0.050000001 42:0.1 43:0 44:0.050000001 45:0 46:0.15000001 47:0.050000001 48:0.050000001 49:0 50:0 51:0 52:0 53:0.1 54:0 55:0 56:0 57:0 58:0.050000001 59:0 60:0 61:0 62:0 63:0 64:0.050000001 65:0.15000001 66:0.1 67:0.1 68:0.1 69:0.1 70:0.050000001 71:0.15000001 72:0.050000001 73:-0.20555556 74:0.38095239 75:3.2276399 #NDUA1_BOVIN
-0.66060367591522428654116083635017 1:0.045000002 2:0.059999999 3:0.0049999999 4:0.050000001 5:0.035 6:0.055 7:0.085000001 8:0.079999998 9:0.075000003 10:0.050000001 11:0.050000001 12:0.07 13:0.039999999 14:0.039999999 15:0.059999999 16:0.025 17:0.0099999998 18:0.055 19:0.015 20:0.1 21:0.075000003 22:0 23:0.1 24:0.075000003 25:0.050000001 26:0.025 27:0.075000003 28:0.075000003 29:0 30:0.025 31:0.025 32:0.1 33:0.050000001 34:0.075000003 35:0.050000001 36:0.025 37:0.050000001 38:0 39:0 40:0.2 41:0 42:0.1 43:0.050000001 44:0 45:0 46:0.050000001 47:0.1 48:0.15000001 49:0.050000001 50:0.050000001 51:0 52:0 53:0.050000001 54:0 55:0 56:0 57:0 58:0 59:0 60:0.1 61:0.1 62:0 63:0 64:0.15000001 65:0.1 66:0.30000001 67:0 68:0 69:0 70:0 71:0.1 72:0.050000001 73:-0.014444444 74:0.31746033 75:3.10935 #NGAL_MOUSE
-0.99535999334384661629826496209716 1:0.081521742 2:0.035326086 3:0.032608695 4:0.054347824 5:0.078804351 6:0.051630434 7:0.035326086 8:0.048913043 9:0.040760871 10:0.046195652 11:0.040760871 12:0.086956523 13:0.065217391 14:0.046195652 15:0.057065219 16:0.029891305 17:0.038043477 18:0.057065219 19:0.0081521738 20:0.1 21:0.025 22:0.025 23:0.050000001 24:0.050000001 25:0.075000003 26:0.025 27:0.050000001 28:0.050000001 29:0.075000003 30:0.025 31:0.1 32:0.075000003 33:0.075000003 34:0 35:0.025 36:0.025 37:0.15000001 38:0.050000001 39:0 40:0 41:0.050000001 42:0.15000001 43:0.050000001 44:0.050000001 45:0 46:0.2 47:0.050000001 48:0.050000001 49:0 50:0 51:0.050000001 52:0.050000001 53:0 54:0.1 55:0 56:0 57:0 58:0 59:0.050000001 60:0 61:0.1 62:0.050000001 63:0 64:0 65:0.34999999 66:0.1 67:0.1 68:0 69:0 70:0 71:0.050000001 72:0 73:-0.11555555 74:0.40846559 75:3.3580101 #GGTA1_BOVIN
4.1033656315892201860151544678956 1:0.020057306 2:0.045845274 3:0.014326648 4:0.028653296 5:0.037249282 6:0.085959889 7:0.045845274 8:0.10028654 9:0.097421207 10:0.040114611 11:0.068767905 12:0.071633235 13:0.051575933 14:0.080229223 15:0.020057306 16:0.014326648 17:0.020057306 18:0.057306591 19:0.014326648 20:0 21:0.1 22:0 23:0.025 24:0 25:0 26:0.025 27:0.125 28:0.1 29:0 30:0.125 31:0.15000001 32:0.1 33:0.025 34:0 35:0.075000003 36:0 37:0 38:0.1 39:0 40:0 41:0 42:0 43:0 44:0 45:0.2 46:0.15000001 47:0.15000001 48:0.15000001 49:0 50:0 51:0.050000001 52:0 53:0.050000001 54:0 55:0.1 56:0 57:0 58:0 59:0 60:0.050000001 61:0.1 62:0 63:0 64:0.050000001 65:0 66:0.15000001 67:0.1 68:0.15000001 69:0 70:0.1 71:0.1 72:0.050000001 73:0.38777778 74:0.046560846 75:2.69259 #CEAM8_HUMAN
0.1121941840314777671938628600401 1:0.03508772 2:0.043859649 3:0.0087719299 4:0.061403509 5:0.043859649 6:0.065789476 7:0.03508772 8:0.078947365 9:0.087719299 10:0.0087719299 11:0.083333336 12:0.065789476 13:0.030701755 14:0.03508772 15:0.02631579 16:0.01754386 17:0 18:0.057017542 19:0.083333336 20:0 21:0 22:0.025 23:0.1 24:0 25:0.075000003 26:0 27:0.15000001 28:0.050000001 29:0.025 30:0.075000003 31:0.1 32:0.125 33:0.050000001 34:0.050000001 35:0.1 36:0 37:0 38:0 39:0.050000001 40:0 41:0 42:0.050000001 43:0 44:0.050000001 45:0.050000001 46:0.15000001 47:0.2 48:0.1 49:0 50:0.1 51:0 52:0 53:0.1 54:0 55:0.1 56:0 57:0 58:0.050000001 59:0 60:0.050000001 61:0 62:0.1 63:0 64:0.1 65:0.15000001 66:0.2 67:0.050000001 68:0.050000001 69:0 70:0 71:0 72:0.050000001 73:0.36777776 74:0.23703703 75:2.6410999 #GAS1_CAEEL
0.51429279477452238822365870873909 1:0.032967035 2:0 3:0.027472528 4:0.021978023 5:0.016483517 6:0.021978023 7:0.0054945056 8:0.15934066 9:0.0989011 10:0 11:0.14285715 12:0.071428575 13:0.027472528 14:0.071428575 15:0.04945055 16:0.010989011 17:0 18:0.071428575 19:0.043956045 20:0 21:0 22:0 23:0.025 24:0.025 25:0.050000001 26:0 27:0.2 28:0.1 29:0 30:0.1 31:0.075000003 32:0.125 33:0.075000003 34:0.125 35:0.075000003 36:0 37:0 38:0 39:0 40:0 41:0 42:0 43:0 44:0 45:0.1 46:0.15000001 47:0.15000001 48:0 49:0.050000001 50:0.2 51:0 52:0 53:0 54:0 55:0 56:0.050000001 57:0 58:0 59:0 60:0 61:0.15000001 62:0.2 63:0 64:0.1 65:0.050000001 66:0.2 67:0.050000001 68:0.050000001 69:0.1 70:0 71:0 72:0 73:0.35444444 74:0.30476192 75:2.51121 #NLTL5_ARATH
-3.6398138356019411610020597436232 1:0.029268293 2:0.024390243 3:0.053658538 4:0.024390243 5:0.014634146 6:0.019512195 7:0.063414633 8:0.10243902 9:0.063414633 10:0.034146342 11:0.078048781 12:0.058536585 13:0.014634146 14:0.087804876 15:0.053658538 16:0.019512195 17:0.0097560976 18:0.073170729 19:0.0048780488 20:0 21:0 22:0.075000003 23:0.050000001 24:0 25:0 26:0.075000003 27:0.1 28:0.1 29:0.025 30:0.1 31:0.050000001 32:0.125 33:0.050000001 34:0.1 35:0.1 36:0 37:0 38:0 39:0.050000001 40:0.050000001 41:0 42:0 43:0 44:0 45:0.1 46:0.1 47:0.15000001 48:0.050000001 49:0.1 50:0.15000001 51:0 52:0 53:0.1 54:0 55:0.1 56:0.050000001 57:0 58:0.050000001 59:0 60:0 61:0 62:0.15000001 63:0 64:0 65:0.050000001 66:0.25 67:0 68:0.15000001 69:0.050000001 70:0 71:0.050000001 72:0.050000001 73:0.2588889 74:0.11851852 75:2.8132501 #TNFB_HUMAN
-2.0963386621253392583241748070577 1:0.029535865 2:0.084388189 3:0.016877636 4:0.050632913 5:0.080168776 6:0.0084388182 7:0.033755273 8:0.067510545 9:0.054852322 10:0.0042194091 11:0.17721519 12:0.084388189 13:0.0084388182 14:0.029535865 15:0.021097047 16:0.021097047 17:0.0084388182 18:0.06329114 19:0.021097047 20:0.050000001 21:0.025 22:0 23:0.025 24:0.050000001 25:0 26:0 27:0.1 28:0.025 29:0 30:0.22499999 31:0.15000001 32:0.15000001 33:0.050000001 34:0.025 35:0.050000001 36:0.050000001 37:0.050000001 38:0 39:0 40:0 41:0 42:0 43:0 44:0 45:0.25 46:0.25 47:0.25 48:0 49:0 50:0.050000001 51:0 52:0 53:0 54:0.1 55:0.050000001 56:0 57:0.050000001 58:0.1 59:0.050000001 60:0 61:0 62:0.1 63:0.050000001 64:0.2 65:0 66:0.15000001 67:0 68:0 69:0 70:0 71:0 72:0.1 73:0.5422222 74:-0.070899472 75:2.5801499 #R9BP_MOUSE
-1.3852724011548049887210254382808 1:0.045454547 2:0.08116883 3:0.012987013 4:0.025974026 5:0.035714287 6:0.012987013 7:0.025974026 8:0.071428575 9:0.077922076 10:0.025974026 11:0.21753247 12:0.051948052 13:0.029220778 14:0.12337662 15:0.019480519 16:0.0097402595 17:0.0064935065 18:0.055194806 19:0.0064935065 20:0 21:0 22:0 23:0 24:0 25:0 26:0.025 27:0.050000001 28:0.1 29:0.050000001 30:0.375 31:0.1 32:0.15000001 33:0.1 34:0 35:0 36:0 37:0 38:0 39:0 40:0 41:0 42:0 43:0.050000001 44:0.1 45:0.050000001 46:0.15000001 47:0.30000001 48:0.1 49:0.15000001 50:0 51:0 52:0 53:0 54:0.050000001 55:0.15000001 56:0 57:0 58:0 59:0 60:0.050000001 61:0 62:0.050000001 63:0.050000001 64:0.1 65:0.1 66:0.1 67:0 68:0.1 69:0.050000001 70:0 71:0.15000001 72:0 73:0.37444445 74:-0.035978835 75:2.5376599 #MPA5A_LOLPR
6 1:0.069767445 2:0.034883723 3:0.023255814 4:0.040697675 5:0.023255814 6:0.058139537 7:0.023255814 8:0.034883723 9:0.058139537 10:0.046511628 11:0.075581394 12:0.087209299 13:0.058139537 14:0.063953489 15:0.05232558 16:0.046511628 17:0.034883723 18:0.08139535 19:0.011627907 20:0.050000001 21:0.025 22:0 23:0.025 24:0 25:0.025 26:0.025 27:0.125 28:0.025 29:0 30:0.1 31:0.125 32:0.050000001 33:0.075000003 34:0.075000003 35:0.050000001 36:0 37:0 38:0.050000001 39:0 40:0.050000001 41:0 42:0 43:0 44:0 45:0.1 46:0.1 47:0.050000001 48:0.1 49:0.1 50:0.1 51:0.15000001 52:0.1 53:0 54:0 55:0.050000001 56:0 57:0 58:0 59:0 60:0 61:0 62:0.1 63:0 64:0.25 65:0.15000001 66:0.15000001 67:0.050000001 68:0.050000001 69:0.1 70:0 71:0 72:0 73:0.23888889 74:0.43703705 75:2.9865899 #LAML_ARATH
3.6595343030560592012534470995888 1:0.018461538 2:0.015384615 3:0 4:0.027692307 5:0.033846155 6:0.027692307 7:0.024615385 8:0.29846153 9:0.16615385 10:0.036923077 11:0.06769231 12:0.070769228 13:0.058461539 14:0.030769231 15:0.036923077 16:0.0061538462 17:0 18:0.024615385 19:0.0030769231 20:0 21:0 22:0 23:0.125 24:0 25:0.050000001 26:0.025 27:0.1 28:0.22499999 29:0.15000001 30:0.075000003 31:0.1 32:0.025 33:0.025 34:0.025 35:0 36:0 37:0 38:0 39:0 40:0.050000001 41:0 42:0.050000001 43:0 44:0.050000001 45:0.15000001 46:0.1 47:0 48:0.15000001 49:0 50:0 51:0 52:0 53:0 54:0.050000001 55:0 56:0 57:0 58:0.050000001 59:0.1 60:0 61:0.050000001 62:0.1 63:0 64:0 65:0 66:0.15000001 67:0.15000001 68:0 69:0.30000001 70:0 71:0 72:0 73:0.1388889 74:0.30476192 75:2.9823899 #DSE2_YEAST
-1.911204881132115396269455231959 1:0.076712325 2:0.038356163 3:0.01369863 4:0.05479452 5:0.057534248 6:0.035616439 7:0.035616439 8:0.10958904 9:0.046575341 10:0.038356163 11:0.060273971 12:0.06849315 13:0.065753423 14:0.06849315 15:0.019178081 16:0.021917809 17:0.0082191778 18:0.063013695 19:0.02739726 20:0.050000001 21:0.050000001 22:0 23:0.025 24:0.025 25:0.025 26:0.050000001 27:0.1 28:0.050000001 29:0 30:0.125 31:0.075000003 32:0.050000001 33:0.175 34:0.025 35:0.050000001 36:0 37:0.050000001 38:0.050000001 39:0 40:0.050000001 41:0 42:0 43:0.050000001 44:0 45:0.1 46:0.1 47:0 48:0.15000001 49:0.1 50:0 51:0.1 52:0 53:0.1 54:0 55:0.050000001 56:0 57:0.050000001 58:0 59:0 60:0 61:0.050000001 62:0 63:0 64:0.1 65:0.15000001 66:0.30000001 67:0 68:0 69:0.1 70:0 71:0.050000001 72:0.1 73:0.083333336 74:0.43915343 75:2.9377999 #CXAR_HUMAN
-0.16127903412954086581621027107758 1:0.024691358 2:0.043209877 3:0.018518519 4:0.055555556 5:0.049382716 6:0.018518519 7:0.012345679 8:0.030864198 9:0.043209877 10:0.049382716 11:0.11728395 12:0.09259259 13:0.086419754 14:0.030864198 15:0.061728396 16:0.018518519 17:0.030864198 18:0.043209877 19:0.024691358 20:0.025 21:0.1 22:0.025 23:0.025 24:0.025 25:0 26:0 27:0.025 28:0.025 29:0.075000003 30:0.15000001 31:0.075000003 32:0.2 33:0 34:0.050000001 35:0.025 36:0.050000001 37:0 38:0 39:0.050000001 40:0 41:0 42:0 43:0 44:0.050000001 45:0.15000001 46:0 47:0.25 48:0.1 49:0 50:0.1 51:0.050000001 52:0.1 53:0 54:0 55:0 56:0 57:0.050000001 58:0 59:0 60:0 61:0 62:0.1 63:0.1 64:0.1 65:0.15000001 66:0.2 67:0.1 68:0.050000001 69:0.050000001 70:0.1 71:0 72:0 73:0.43222222 74:0.33333334 75:2.8508101 #KCNH2_CAVPO
-0.23351740291885011990835607775807 1:0.061810154 2:0.068432674 3:0.035320088 4:0.072847679 5:0.075055189 6:0.057395145 7:0.019867551 8:0.092715234 9:0.04415011 10:0.030905077 11:0.059602648 12:0.050772626 13:0.066225164 14:0.033112582 15:0.052980132 16:0.024282562 17:0.015452539 18:0.050772626 19:0.022075055 20:0.075000003 21:0 22:0.050000001 23:0.075000003 24:0.025 25:0.1 26:0.025 27:0.075000003 28:0.050000001 29:0.025 30:0.1 31:0.050000001 32:0.075000003 33:0.025 34:0.050000001 35:0 36:0 37:0.050000001 38:0 39:0 40:0.050000001 41:0.050000001 42:0.15000001 43:0.050000001 44:0.050000001 45:0.15000001 46:0.050000001 47:0.050000001 48:0.2 49:0 50:0.050000001 51:0 52:0 53:0 54:0 55:0 56:0 57:0.050000001 58:0 59:0.050000001 60:0.050000001 61:0 62:0.050000001 63:0 64:0.1 65:0 66:0 67:0 68:0.050000001 69:0.1 70:0.050000001 71:0.34999999 72:0.1 73:0.072222225 74:-0.012698413 75:3.17998 #2ABD_RAT
3.2643176145869450266445710440166 1:0.039039038 2:0.066066064 3:0.037537538 4:0.043543544 5:0.060060062 6:0.039039038 7:0.04954955 8:0.078078076 9:0.042042043 10:0.039039038 11:0.066066064 12:0.066066064 13:0.031531531 14:0.078078076 15:0.037537538 16:0.016516516 17:0.018018018 18:0.072072074 19:0.028528528 20:0 21:0 22:0.075000003 23:0.025 24:0.050000001 25:0 26:0.025 27:0.025 28:0.050000001 29:0 30:0.125 31:0.050000001 32:0.30000001 33:0.050000001 34:0 35:0.1 36:0.025 37:0 38:0 39:0.050000001 40:0 41:0 42:0 43:0 44:0 45:0.1 46:0.1 47:0.40000001 48:0 49:0.050000001 50:0 51:0 52:0.050000001 53:0.1 54:0 55:0.15000001 56:0 57:0 58:0 59:0 60:0 61:0.050000001 62:0.050000001 63:0 64:0.2 65:0.050000001 66:0 67:0 68:0.34999999 69:0 70:0 71:0.1 72:0 73:0.37444445 74:-0.16190477 75:2.65288 #SEM7A_HUMAN
4.1005083266778976636146580858622 1:0.036332179 2:0.044982698 3:0.025951557 4:0.048442908 5:0.069204152 6:0.038062282 7:0.064013839 8:0.074394464 9:0.044982698 10:0.041522492 11:0.076124564 12:0.041522492 13:0.027681662 14:0.05882353 15:0.039792389 16:0.017301038 17:0.032871973 18:0.070934258 19:0.008650519 20:0 21:0.075000003 22:0.025 23:0.050000001 24:0.025 25:0.025 26:0.025 27:0.075000003 28:0.050000001 29:0.025 30:0.125 31:0.025 32:0.30000001 33:0.025 34:0.025 35:0.075000003 36:0.025 37:0 38:0.050000001 39:0.050000001 40:0 41:0.050000001 42:0 43:0 44:0 45:0.2 46:0 47:0.40000001 48:0 49:0.050000001 50:0.050000001 51:0 52:0 53:0 54:0 55:0 56:0.050000001 57:0 58:0.050000001 59:0 60:0 61:0.1 62:0.050000001 63:0 64:0 65:0 66:0.40000001 67:0 68:0.050000001 69:0 70:0.050000001 71:0.2 72:0 73:0.31777778 74:0.16613756 75:2.63289 #TREA_RABIT
0.1873269374300387535292600205139 1:0.034920637 2:0.069841273 3:0.0095238099 4:0.053968254 5:0.057142857 6:0.01904762 7:0.052380953 8:0.068253972 9:0.046031747 10:0.017460318 11:0.088888891 12:0.058730159 13:0.026984127 14:0.08730159 15:0.028571429 16:0.014285714 17:0.014285714 18:0.069841273 19:0.01904762 20:0 21:0 22:0 23:0.025 24:0.025 25:0.025 26:0.025 27:0.075000003 28:0.075000003 29:0.025 30:0.1 31:0.075000003 32:0.30000001 33:0.1 34:0 35:0.1 36:0.025 37:0 38:0 39:0 40:0 41:0 42:0 43:0 44:0 45:0.15000001 46:0.1 47:0.40000001 48:0 49:0.1 50:0 51:0 52:0 53:0.1 54:0 55:0.050000001 56:0 57:0 58:0 59:0 60:0 61:0.1 62:0.1 63:0 64:0.15000001 65:0 66:0.2 67:0 68:0.15000001 69:0 70:0 71:0.15000001 72:0.050000001 73:0.42222223 74:0.16190477 75:2.48262 #MSLN_HUMAN
